0.926527
0.451963
0.614861
1.05643
0.444665
0.775782
0.765054
0.476111
0.676978
0.589059
0.408201
0.401641
-0.180991
0.19466
-9.11036
0.68647
0.253973
-0.110693
1.42846
0.166934
0.28975
0.822593
0.375411
-0.236275
1.45947
1.71084
0.291212
1.35289
0.860126
-0.773121
0.595696
0.93577
-1.87097
0.666626
1.53661
0.0635464
-2.66853
3.79681
-0.0354047
0.0143597
0.378492
-2.44582
1.43835
-0.816535
-1.17984
0.455649
-0.662362
1.38765
1.52813
-3.73792
1.86723
-3.16133
0.153547
4.76417
2.32065
2.88529
0.432719
-0.918661
-0.849777
0.404664
1.23774
-0.961023
0.76424
1.77644
-0.146873
-1.16989
-0.719266
-4.00735
-0.144692
-1.29422
1.26122
0.149044
-0.67428
-1.1734
0.661553
1.76179
0.351083
-1.22567
1.31724
2.57455
-2.6501
0.471199
0.262457
0.182457
0.182515
-3.45355
0.210737
0.484147
-0.571385
-1.05037
1.16235
-1.79501
1.8285
-0.594332
1.88385
-0.0611894
4.05765
-4.40779
0.605499
-1.88599
0.0244164
-0.0553057
3.53264
0.216727
1.95477
0.795666
-2.14206
-0.822351
1.5852
3.62923
0.257531
-0.0287924
-0.197669
-3.29576
-0.240312
2.46913
0.0420036
0.692764
0.932737
0.29116
0.148725
2.3298
0.247423
2.43849
-0.324061
0.353512
0.0981422
1.50214
-0.729767
0.734321
-0.369736
-1.96137
1.52922
3.94614
3.69222
-3.61929
1.00063
-2.70066
-1.61948
-0.769398
2.06832
1.63015
-2.8896
3.08672
2.27775
0.0514172
0.205653
-4.38869
-0.284487
2.32304
0.243144
0.815439
0.50378
2.19328
4.56217
-1.03491
-1.2687
1.11111
-0.429266
-6.8475
-1.9633
1.972
0.381962
-0.999416
0.461074
-4.74537
-2.41116
1.30126
-1.33347
0.55639
1.43015
2.43228
-0.412772
0.056918
-1.15486
-5.16134
-1.61043
-2.49698
5.66337
1.72699
1.09295
-2.67072
1.55813
-1.96025
-0.0334391
-1.29908
-1.4065
2.3812
-1.96527
-1.77044
0.753271
1.84661
-0.968941
1.54177
0.392236
-1.49969
0.846804
4.43563
0.189263
-1.13281
0.205109
-1.18644
-3.65885
2.10234
-2.01803
-4.51499
-1.06243
2.31431
-0.333322
0.791151
-3.01618
0.26019
-0.901095
-1.52649
-0.131439
-1.29263
-1.44019
-0.848779
0.900249
-1.65021
0.846753
1.8702
4.24205
-1.59246
0.347848
0.162702
0.703422
-1.13942
2.53848
-1.9351
1.09449
-0.509775
0.81745
0.244474
2.1539
-0.131013
0.348618
1.50183
-1.40481
-0.345475
-0.583003
3.06911
-8.12725
0.389284
0.203738
0.818932
0.916122
-2.74345
-0.912666
-0.305278
-0.0971725
2.37065
0.0095
0.1292
0.1652
0.065
0.0934
0.0602
0.015
0.1728
-1.18262
-0.118213
-0.195271
-1.57202
0.0710464
-3.98249
45.826
-1.33498
0.0936798
-1.81464
-0.449067
-0.646183
-3.80263
-1.19942
0.886266
0.271644
0.0426443
-0.816577
-1.16862
1.21731
-4.73278
-0.518774
0.521548
-2.90703
-1.7921
-0.767929
-4.16198
-2.76503
3.73777
1.22408
0.0398861
-2.55594
3.5355
-1.47459
-5.7628
-0.0595434
2.65192
5.78191
2.37008
2.05288
1.88442
2.38201
0.933455
-2.94514
-20.2959
3.61337
2.88274
0.108164
-0.687748
0.703028
-1.44989
1.55495
1.99494
-3.30042
1.12315
1.7749
0.193829
-0.0130881
-0.535842
-1.41804
-2.22624
1.83264
-1.95532
-1.19099
-2.71995
0.277062
1.64353
4.1746
3.52318
-0.388235
3.31863
1.45919
6.38214
-1.84292
-3.5529
-3.89583
-1.86871
1.14061
-2.06624
3.12731
-1.09279
-0.658273
0.851469
3.62718
1.02862
3.16992
-3.88657
-1.58826
-4.08087
-4.54153
-3.16615
-3.18893
-0.159916
-1.68407
-10.2039
2.06489
3.09992
-7.1684
-2.61512
-5.27412
-6.4796
4.37096
-0.245226
-3.66639
0.224886
3.41247
-2.2411
3.52528
1.48468
-12.9091
-3.31644
2.2685
-0.964884
-2.94938
4.43737
4.35781
-4.5057
4.25517
-4.37877
-4.37338
-0.39129
6.50468
4.7405
1.93287
-2.5826
0.324835
2.67582
-3.57014
-2.11428
-5.67573
-4.70894
-1.2205
5.01222
3.98499
-5.24277
-1.76299
-0.683614
2.71644
-7.39495
-4.59185
1.89062
9.3947
1.59605
6.24762
4.36813
4.66255
-3.68973
0.518056
0.778405
3.39225
-2.77297
-4.04222
-7.92909
0.249793
3.10663
-2.81205
3.35324
4.52191
-7.30039
4.51784
0.0953635
-2.92547
0.0769499
8.02373
3.55725
3.59523
0.10759
4.80855
-4.66789
-4.44096
1.03498
-1.65414
-0.705664
-5.14904
0.592846
-1.51949
-3.58439
-6.63475
2.53985
0.662833
-11.6591
-2.0038
0.277477
-2.33262
-1.93484
1.3275
3.87891
-0.138754
0.780271
2.56561
-3.14112
1.43409
2.60158
-2.07634
0.948689
1.88752
-0.726179
1.0047
2.39008
-0.21907
-12.9668
1.54882
-3.10151
-2.16573
2.93669
3.68527
-2.99346
0.621405
-3.57823
-11.4572
-8.7897
-5.49662
-3.50532
4.93461
-3.91967
-1.02502
-4.5597
-4.62491
-4.85731
0.662598
-7.98365
-5.69091
1.19095
-0.0721443
7.19748
-7.52891
-3.33246
-0.5992
0.0791567
-1.98548
5.53115
-2.85059
-0.493152
-0.590611
-3.51608
6.76065
-3.91175
3.55979
2.61793
-4.32515
-3.75159
-1.74973
-2.89062
-6.53816
2.39538
-2.96453
8.85669
-11.0771
2.13465
-1.65318
1.10064
3.96731
0.0045
0.0552
0.1139
0.0652
0.0192
0.036
0.0408
0.118
-3.96646
-1.09936
-0.739325
-2.10995
-2.99815
-0.624063
-1.12027
-5.6028
52.338
-4.5681
-1.23285
-1.99637
-1.19468
-2.68818
-0.308353
0.221517
-0.187122
-1.07908
-1.97305
-0.07011
-3.90738
-5.70989
-1.72735
1.07002
-1.86461
-3.58862
2.4545
-6.63111
1.71515
-6.12496
2.05802
-4.83973
0.227001
-0.752045
1.19064
-3.60147
-2.64137
1.90885
2.80371
2.29278
-2.55744
-1.51862
-3.09564
1.19066
-0.0648852
4.16408
7.53978
6.92048
2.11315
5.46019
6.22757
3.29921
-2.26727
-0.490508
4.40505
-1.53732
1.205
1.91347
-5.99062
3.34655
-2.93478
2.18993
-2.94623
1.20187
-10.4761
1.52223
-0.835698
-5.84524
-3.98469
1.59886
-6.41554
-0.0298957
0.310818
-0.00361106
-1.81969
-12.4742
-9.32485
-9.67392
-2.057
1.55193
-11.9576
5.26428
2.32131
-2.42208
-0.640315
3.05445
3.41852
-0.807966
-2.29821
2.23336
-0.492803
-0.84882
-7.17584
4.91328
-8.49073
1.38251
0.831216
0.854065
5.764
-0.993905
4.71809
-2.0022
-3.50633
-2.43309
-4.03233
1.2349
2.01765
1.79688
1.27092
-1.50175
-5.49783
3.04679
-3.22242
6.54334
1.13093
-0.0169333
-0.194274
2.77915
0.442736
0.18533
-1.33557
-6.68706
-11.0432
4.18436
-5.16325
-3.44179
6.02278
-1.12539
2.31136
-2.3418
-4.02945
3.13047
5.74358
-3.74968
6.8241
0.797698
1.93527
-0.805797
2.43872
5.04944
1.22406
-1.83043
-5.25121
2.31565
-0.235963
0.376548
0.0210776
-1.86182
3.64323
1.53913
0.809238
6.59639
4.45226
-2.41562
-5.04477
-1.59815
6.94734
2.5403
7.99052
-0.17761
3.3718
-4.66316
5.55172
-7.12709
-17.1743
1.84681
-0.332706
0.467296
-0.228037
-3.40203
-5.03321
3.55418
-11.2181
2.71726
-1.75314
-3.93351
-0.124875
1.85317
5.92094
1.408
7.43426
2.43466
0.668781
3.68248
2.80848
-1.98182
0.918045
-5.80691
-2.87846
-1.70504
-4.29598
-4.66028
2.52622
-0.306221
5.68199
-4.1572
2.37553
1.9067
-1.54937
0.213415
0.966275
-4.58159
-5.49735
-9.47658
3.81398
4.25117
-2.05043
0.16237
0.558477
6.06981
3.23892
6.40678
-0.380283
3.09485
-9.21795
0.922744
-16.3543
2.8138
1.38735
5.14775
3.15013
-0.50371
5.66926
-5.09235
-7.05598
6.70295
1.54744
-2.10431
-1.29467
-1.11756
4.39483
2.26186
-1.5385
2.14882
-2.29876
-5.65045
2.56246
1.20921
-0.913696
-4.12118
-0.939441
5.74809
4.2815
2.85015
3.00947
-6.44372
-4.06123
1.34487
-0.103086
0.424857
-3.1194
-10.76
0.0619
0.0171
0.0117
0.018
0.0919
0.1936
0.084
0.07
0.207975
-19.6303
0.173914
0.219681
0.45563
0.200224
0.466498
0.163722
0.415126
-0.175317
0.289395
0.570648
0.398024
0.332759
-0.11106
0.0440843
0.483319
7.20612
0.209779
0.0220781
1.19569
0.394062
-0.260533
-0.0863707
-0.0798445
0.0656363
0.0346066
0.705703
-0.610756
0.0299888
0.0634278
-0.730222
0.800925
-0.0712623
-1.36979
0.0454667
0.173028
0.192118
4.08984
1.18773
-0.108951
-0.694146
0.285566
0.0737969
1.60483
2.32499
4.23182
-0.759118
-0.220458
0.182323
-0.0343282
1.32768
-0.860027
0.173687
2.244
-0.134877
1.00083
-0.884321
-0.970492
-1.1951
-1.12677
1.52352
-0.454284
0.415745
-0.980696
0.32138
0.225653
-2.2363
-1.1093
-0.207991
0.344813
0.194486
-0.318492
-0.922899
-0.0996582
-0.621132
0.70968
-0.344584
-0.145826
-0.62012
0.648635
-2.11951
-1.38268
-0.0573866
-0.0857874
0.855956
-0.516552
-1.30084
-0.45975
1.60491
1.83999
-1.07424
-0.106971
-1.25787
-0.703148
1.8004
0.0312263
-1.6861
-1.13033
-0.729016
3.47177
2.39849
1.84045
0.642147
-0.834823
2.0252
1.82584
-1.07754
-0.277678
-1.48422
-0.502806
-0.729716
1.16215
-0.202139
-1.83491
0.233203
4.43787
-0.590552
-0.025906
-0.390534
-0.471165
-0.661138
1.2113
-0.360439
1.34908
-0.334317
-0.0593213
0.674617
2.32823
2.62473
0.892525
0.22875
-1.06934
0.911857
0.70039
-0.387744
1.2601
0.780375
-0.978525
1.36751
0.863802
-0.0859068
0.150777
2.45058
3.6128
-0.452586
-1.53011
-0.380362
-0.417563
4.44275
-0.168669
-1.38649
-1.06636
-0.325906
-0.913434
0.190454
0.141964
-0.0849284
0.768509
0.0801776
-0.219316
-1.05094
0.16947
-1.68666
-0.914404
-0.486229
1.72111
-0.618439
-0.280057
-0.165445
0.120623
1.75224
-0.379919
-0.37803
-0.856549
0.367273
-0.309882
1.97272
0.40642
-0.44239
0.73827
0.239383
0.308489
-0.337227
1.88515
0.39757
-0.257319
1.99827
-0.503551
0.784616
5.05442
1.55039
0.916999
0.258601
-1.43236
0.71379
0.604309
1.32847
-0.727751
-0.987471
-0.986427
-0.616672
-0.317005
-1.23303
-1.22775
-3.52787
1.24899
0.897216
-0.830317
-1.40157
-1.59495
-1.76344
-1.20733
-1.01203
0.675861
-0.860566
-1.02837
0.599149
0.460181
-1.22565
-0.826849
2.3195
0.333481
-0.236658
-1.31845
-0.231798
1.93822
0.0015204
-0.0177143
0.10329
7.09208
0.124536
-0.00523091
-1.08915
-0.0459347
1.14753
3.74462
-0.33658
2.48271
0.249336
-0.106443
-0.814944
1.36171
1.27719
-1.51949
1.64477
1.88263
0.542457
0.0197846
1.46418
0.358986
-1.15314
0.0878
0.0386
0.1411
0.103
0.0352
0.1794
0.28
0.0632
-1.53641
-3.49182
-0.694278
-0.345245
-1.23176
-1.79452
-1.1107
-1.37737
-0.292135
-1.0358
-0.876404
0.269149
-0.589677
0.665928
0.358341
34.8569
-2.52416
-0.650007
-0.586154
-2.77099
-1.97086
-0.0639165
-0.0534261
-0.141754
-0.398847
-4.42955
0.777115
-2.1438
-4.19852
0.786641
-2.03289
2.72431
1.24875
1.97921
4.04684
0.877296
3.65409
3.2541
-5.9202
-0.430242
-3.82382
2.9096
-3.92995
1.91052
6.99821
-2.64062
1.09327
-0.388923
0.310507
-1.85328
0.0335531
-6.23754
2.96808
0.12108
5.13856
1.28624
1.09325
-4.49523
-2.01173
0.362379
-1.07925
4.46908
-0.80092
-2.9051
2.00214
-1.01461
2.51638
1.99586
0.826002
-0.0494309
2.07523
-2.27792
1.96763
-1.3461
-4.80397
0.655325
-3.2779
3.02941
-0.412635
-3.39008
-4.19766
-4.94974
0.0230489
-2.27364
1.99207
-1.18497
1.02505
0.641136
-2.97984
2.11369
-2.55636
-9.80275
-1.65549
-9.23083
-5.87661
-3.37288
-1.26149
-1.93729
4.12957
-6.48649
0.747059
5.57816
3.99837
-0.308668
-6.33489
1.5039
-3.45304
-4.06771
-5.55969
1.73593
1.17953
1.51028
-1.44028
-4.34146
4.54694
-1.68445
2.8555
1.62227
-4.579
-5.0283
0.351125
0.0264654
2.83127
2.12114
0.529405
-0.187348
-4.8649
2.60175
0.155626
-0.410509
-1.17775
-4.58005
2.91781
-2.40128
-7.73186
-0.198326
-3.32797
4.43664
-0.7268
1.79384
-6.10288
-12.3719
1.82339
1.71888
-1.09471
-2.61808
-6.74055
0.49529
2.90827
-3.17254
2.81142
-0.300111
-1.15991
-4.64421
-1.49629
-1.1187
4.13003
2.07824
-3.00706
1.92094
-1.77244
1.5306
2.34739
2.16292
-0.00273568
0.762034
2.92074
1.05525
-3.05699
0.292828
4.98663
3.31827
1.77942
4.10054
0.790394
0.921628
0.148407
-6.21769
3.06619
-6.76792
0.622931
3.10665
1.1395
-7.60649
-2.09211
-3.61571
2.14111
-1.66426
0.551681
2.05992
0.584113
5.39065
-5.88672
3.82791
-0.181627
-1.89628
-3.88152
0.349009
-2.03137
1.24826
1.88087
1.28219
1.46581
1.31591
-4.9177
-1.3086
-0.374848
-1.49067
-0.386787
-3.09612
-12.433
-1.31349
-1.68636
-0.00858538
-0.263002
0.575137
0.385339
4.00657
2.83847
0.339376
3.61559
-2.70131
1.4708
0.337561
-5.37553
1.32144
3.01576
-0.654966
-1.4556
-6.18939
-8.64236
-0.807612
-1.19476
1.16657
0.817996
4.27034
0.185287
1.16787
1.27614
-5.36034
2.67812
-6.67121
6.01847
-0.753546
3.92237
-9.35753
-0.241737
-2.03646
-0.201684
-6.03681
-0.934316
-9.88469
0.0871
0.0656
0.0018
0.144
0.001
0.0138
0.1256
0.104
0.933
0.48716
0.293872
-23.4664
0.537803
0.465304
0.277783
0.30609
0.246707
0.574414
0.325306
1.13995
-0.270531
0.121645
0.612415
0.231526
0.36127
-0.127956
1.18157
0.979322
1.27549
-0.186217
3.29877
0.250354
2.02156
3.03055
1.25951
-0.842457
0.931705
-1.50094
1.93869
-1.24793
3.5502
-1.04789
-2.84431
1.73238
0.903402
-1.06622
2.76748
2.00768
1.93707
2.31398
2.71908
-1.56534
2.28374
-0.255057
-2.38712
0.703311
2.42748
1.79523
-1.31117
2.69214
-0.701448
1.68513
-0.230863
-0.615603
-0.566485
-0.525603
-0.171964
0.100497
1.03213
-1.27523
-0.816375
2.79276
0.427015
-0.842583
-1.49458
0.990268
-0.356331
-5.60744
-0.54653
0.254336
0.0541595
-4.65825
-1.07824
0.432395
0.0251021
-1.9204
-1.00658
-2.40533
-2.121
1.67406
1.66466
0.373457
8.84173
2.24164
0.376746
-1.79022
0.129104
1.25849
-1.45463
0.958024
3.17837
-1.24354
4.69296
-1.34802
-3.06305
-0.947228
1.31256
0.272824
0.389502
0.229274
-0.996773
0.210067
0.353711
0.614521
-0.76879
10.2951
-1.3385
-0.737521
2.31011
0.403254
1.29534
3.29189
9.06948
2.76118
-0.835254
1.86566
-0.33704
0.957355
-0.35125
1.04333
0.0337243
0.506309
-3.67587
0.79863
1.06423
1.48426
3.80553
-0.973409
1.5531
1.57503
6.02736
2.41017
5.06762
-1.3996
0.701358
-1.64371
-1.01305
-0.677647
0.56306
-1.07723
-3.2041
-0.636847
0.222838
-1.39565
-0.456019
-0.0337491
0.94573
0.0356942
2.64894
-0.929322
-2.30256
-2.00795
2.33392
-1.6533
3.10846
-0.619153
-3.01629
-3.70165
-0.173687
-0.983343
-0.580991
-2.67592
0.506775
-0.600741
-0.0353939
-0.285511
0.0994392
-1.13338
8.58867
-4.1355
0.122855
3.43228
5.07309
-0.879184
4.47972
0.610793
2.81159
-0.608005
-1.92228
0.340007
-0.802782
-0.321094
-0.360659
2.92644
1.82892
2.73064
4.43091
-0.793161
-2.40881
2.45655
0.134028
3.96653
1.34623
4.08153
-0.250676
-0.130481
0.679522
0.975411
0.899054
-0.275583
-0.698219
1.98831
0.805175
-0.677469
3.22656
4.51653
0.216308
-1.82435
4.31115
2.90628
-0.264385
-2.4251
-2.42959
-0.397445
-0.542527
-0.261338
-0.252115
-1.32416
-3.0025
-1.90978
-0.727619
-3.34875
0.078549
-1.16012
7.34074
-1.10055
-0.488012
-1.74793
0.165041
4.45341
1.04792
3.72735
-1.16222
0.238757
-0.860649
-0.139389
-0.843532
-0.225482
-1.68312
-1.44824
0.504466
0.134945
0.423378
7.31707
1.40445
0.457266
-0.855734
0.315003
-2.11034
0.407618
0.0173
0.0292
0.1733
0.0834
0.0771
0.064
0.0122
0.014
-0.349014
1.02892
-3.98688
0.221275
-1.38851
-0.65492
-0.985822
-0.434512
-1.66023
-0.808834
47.1581
-2.54569
-1.74592
0.0555796
0.498376
-1.11882
0.120231
0.134551
-7.64683
0.53785
-3.43521
-1.87146
1.08272
-0.615435
-0.453697
3.41665
-2.38176
2.32997
-7.64649
-0.440951
0.594036
-12.9552
0.479248
5.70601
-4.37416
-5.69983
-1.98931
7.0636
-0.586479
-5.65394
0.57488
1.28478
-4.47365
0.21212
3.42744
5.41567
-4.14556
-3.75438
1.0091
-0.244124
-2.46374
-8.03078
4.58599
5.16438
1.78975
-0.908674
-3.0542
0.0967898
-1.21558
-2.22353
-3.1758
0.748799
-1.33408
4.99407
-0.853933
-6.02785
4.96901
0.741618
1.95309
6.58871
-4.77801
1.60382
-1.51594
5.4378
0.163751
5.12487
-1.7889
-2.54216
-8.07797
-1.32282
-9.18869
-5.93773
-1.80119
3.90264
-0.77097
-0.644807
0.457955
-0.270461
-7.5223
0.183799
2.56326
-5.84711
-0.119925
-1.18536
1.34252
4.48624
13.0688
-2.28349
4.8253
0.688513
-8.18756
6.981
0.239233
2.01258
-4.17034
-0.68527
2.45752
1.7307
-0.478378
2.89677
0.0805646
-1.30623
-8.39824
0.93062
-11.019
-7.78631
1.42022
-2.1341
0.576765
-7.74693
1.70295
-0.689393
3.25486
-9.45296
-9.5665
3.88328
-6.96432
1.68321
-0.499356
-5.10484
-0.483568
-3.39462
-6.8117
4.09344
2.41553
2.35836
1.08819
0.585194
0.901416
-3.42277
-1.35174
-4.95215
2.9128
-7.38649
3.97571
3.86899
0.455343
-0.714668
6.0511
1.64909
0.750063
1.13152
-2.07162
-3.27854
-5.48254
-2.62978
4.36506
-5.73487
1.03647
-4.19044
-5.21088
-0.936255
-0.536993
-4.06918
-1.91849
0.197843
-0.74034
0.295018
0.0694355
3.49632
4.46247
0.885573
3.16847
-2.94344
1.80016
-3.02316
-4.89346
0.348655
4.1392
1.79557
1.76371
0.287589
1.03062
-2.40079
-7.41966
2.02665
5.43414
-2.59182
-7.90674
-2.44802
3.40654
2.70374
0.0117556
-2.84719
-2.49246
2.65748
-0.427873
1.47324
2.43872
3.63259
-7.3955
3.96897
0.422263
-1.756
-3.51164
-5.26208
3.14197
4.46452
-9.8131
-1.06545
0.911118
-8.87195
0.201338
-7.72753
-3.09487
-1.85979
-10.7189
1.67141
-1.52792
-3.46159
4.49406
-1.52478
0.75255
-0.689002
1.94497
0.449907
5.34944
-4.58627
-0.670208
4.95786
-0.402616
3.74947
-1.87871
0.657345
2.03853
-7.52645
1.64756
-1.45125
-1.41584
0.791715
3.41026
4.00476
-0.513887
5.1131
-0.23319
-3.28952
-0.999473
-1.31469
6.31829
1.78789
-1.08523
3.4555
0.0016
0.0291
0.1632
0.14
0.0438
0.012
0.1506
0.0428
0.12888
-1.05158
0.444964
1.10128
1.17738
-0.328875
0.361317
0.0899048
0.804858
0.897139
0.539355
0.783268
5.93082
3.95318
-0.0191513
0.111559
-0.336248
-1.75242
-0.679651
0.573866
6.75204
0.578606
0.95439
1.77239
-2.60377
1.7346
-3.63178
2.70601
-7.81191
2.15369
3.09965
0.593944
0.148583
1.88295
-5.22916
-0.416906
-3.68204
2.59142
-1.77982
-7.25063
1.02485
5.25378
3.73152
-6.02905
0.522095
-3.01207
2.71577
1.71534
3.1311
0.852032
0.931488
2.25285
1.37867
-4.30902
2.20987
1.68465
-3.69553
-2.21635
-1.35636
1.18783
0.0269897
-0.497393
-1.43056
2.41501
-4.44493
-1.63921
-2.67499
1.18161
-2.10969
1.10449
0.123342
1.85532
2.03527
2.88772
-6.01353
1.45075
-3.74977
0.896785
0.877742
2.61194
-6.48426
-3.24336
-0.0995787
-3.72258
-2.18445
-4.13369
-2.27891
-1.46843
3.12987
5.57651
-0.327198
-7.40118
-4.262
-4.82931
-1.12983
-4.95891
2.78749
0.354005
-2.59357
1.05216
-0.0717205
-1.28404
3.26902
-0.996913
-0.953199
3.64364
0.193227
2.39715
3.77857
1.23438
-0.010082
-1.44875
7.72027
0.599203
-5.18409
-2.34946
1.13734
-0.380272
2.06336
6.08967
0.718949
3.00241
-0.0315622
3.66642
5.22533
1.26311
-4.29941
-2.67794
3.61482
-0.136387
0.869188
1.48368
-1.82079
-2.76489
1.34692
-3.20332
-1.01627
1.43451
0.38528
4.96382
3.20126
3.04875
1.29477
-2.43416
-5.14881
5.00275
-3.97766
3.08483
-1.58071
3.92585
0.400075
-5.71258
-3.23591
-4.30729
2.74344
0.207328
-2.57021
4.01503
5.6848
-0.635893
-2.8942
-7.49959
-4.11789
-2.21824
4.62039
0.939557
2.23726
-0.522261
2.22997
-1.93008
2.41362
3.04803
1.12228
1.58466
-1.27759
-1.0664
0.180188
-8.80979
2.64577
1.78831
-1.13399
-0.668009
2.7508
3.11409
4.64198
1.987
-3.60688
-0.162752
1.174
-5.84707
1.86104
4.55583
-2.14553
0.887413
0.868519
2.85052
2.30614
0.179557
-6.79258
-1.05549
-0.66548
-0.823496
2.26979
0.250137
3.90214
-1.39424
4.59587
-2.81888
0.398784
0.0199454
-1.87845
0.787202
0.876067
-1.3469
2.31647
0.312243
1.48967
-4.64126
-4.57503
-2.29826
-2.38246
-4.77447
8.58915
-4.56867
2.51699
2.48117
-5.43465
1.18526
1.32896
-2.37144
-0.5734
1.83749
-3.05216
-2.06916
-2.69621
2.28907
1.4751
1.11734
2.75225
0.366335
2.86275
1.08669
-1.30633
-0.265586
-4.67942
-2.84049
-0.926398
-4.77342
0.174821
7.1123
-0.347757
-5.20295
0.257
0.0414
0.032
0.0069
0.0232
0.0752
0.1155
0.024
-1.86126
-2.55276
-3.82901
-1.25638
-1.29747
-1.74306
-4.15825
50.189
-3.72868
-2.03647
-1.47507
-0.886128
-1.69583
-1.17219
-1.87466
-1.98118
-2.06755
-7.95415
-0.741298
-0.370447
-0.511816
-0.840874
-3.55303
1.59869
-4.15318
-4.74292
-3.33861
-5.46009
-5.87887
0.188412
4.17635
-0.95117
2.428
0.164428
-1.35599
-4.805
1.27096
-9.19815
-4.80522
-0.726825
-2.1842
-0.608038
-0.0905919
1.22124
0.695876
4.92538
-5.82569
3.86807
7.24577
1.47793
-2.30648
-0.470179
1.33776
-0.0448732
0.193766
2.21433
-5.5398
2.02724
-4.43838
-1.06201
-7.56665
4.02003
-3.74178
-3.54567
-3.48796
-13.9022
3.35893
-2.45468
-12.1299
-9.19249
-7.77572
0.233878
2.33311
0.291142
-2.41964
-1.58344
-4.87817
-3.73812
-0.110914
-0.126681
-2.61712
-0.0620716
1.05616
3.59814
-1.29105
0.85454
-2.90349
3.56929
-2.42277
6.01941
0.199202
-5.77685
0.220854
4.65487
0.401631
-3.69096
-0.849529
1.656
-1.32404
2.04824
9.10833
0.844552
2.52776
1.21317
-4.28664
3.17207
0.819153
-1.0195
-14.4545
-5.93187
3.25564
-0.611406
-5.76787
-0.025039
-1.44696
-6.44604
0.422205
1.93552
-4.94102
-3.45989
-2.98672
0.319685
6.02548
7.24987
-2.5496
0.847078
-9.12998
2.68802
8.78165
1.48762
-1.90534
4.05105
9.10557
-4.34521
-10.4763
-0.509665
3.20379
2.63127
-2.4879
-1.81131
-2.3933
2.60787
1.68665
-2.46694
-1.28532
-2.32583
3.94457
-2.16744
-4.51201
-10.3501
-10.0083
-6.70391
-0.325925
2.1176
-4.93533
1.29751
6.17519
2.6106
-1.51975
4.07446
4.06329
-0.261457
1.07596
5.9569
0.322855
0.558958
2.95397
-4.6672
1.72901
-4.53276
-6.95743
0.872844
1.28169
-2.99099
-2.07641
1.74713
0.721019
5.59209
4.81488
-5.495
-5.25332
1.50094
-7.52175
1.33048
-1.86644
4.19202
-5.64079
1.90026
-7.1837
-2.47111
1.76169
3.45129
-2.16821
11.0029
-0.266014
-1.83336
-0.157908
1.72309
2.02279
-1.25046
5.29609
4.52142
6.49072
-2.77091
1.67456
1.10046
-4.68742
-1.7204
2.87051
1.81278
0.700024
-4.70426
3.60734
4.07577
2.80635
5.59729
1.70814
0.277466
-1.96066
1.49032
0.152853
-2.94258
0.219609
-5.99664
0.582573
2.45438
-0.959296
3.95924
3.3026
-10.5165
7.22547
-8.43328
3.74098
-1.32605
3.86919
7.053
2.3853
-1.60066
-0.241194
-5.26737
4.08632
5.28189
-5.51554
7.77587
-2.73218
-1.13341
0.0623847
-1.23749
-5.80552
-0.786221
3.60747
-0.999368
0.1266
0.1296
0.0361
0.1561
0.108
0.0473
0.0196
0.0302
0.0550951
0.804649
0.535168
0.197565
0.578222
0.506785
0.626897
0.315691
0.364196
-25.1426
0.631901
1.09146
0.0977858
0.282605
0.121414
-0.151021
0.632555
0.159539
2.01973
1.53521
1.0191
-0.30229
-0.245922
0.294811
0.0606082
1.09111
0.442528
4.55993
0.19904
-0.500971
-0.501849
0.185912
-0.103274
-0.0293522
-2.04982
0.0333404
-0.737235
-0.289212
2.9167
-1.73452
-1.57522
2.19841
-0.477756
-2.28111
2.21888
-2.21725
-0.689595
10.905
-0.2164
1.21889
-1.05707
0.925919
-0.83676
-0.540356
1.27684
-0.705742
-1.18235
-1.62669
1.06016
-0.303462
-1.44902
2.48
1.72302
-0.316796
-1.02238
-0.0293822
-0.626996
-0.381962
1.11022
4.78691
-0.553121
-0.67521
-1.1414
-2.09539
1.95353
-1.2237
-0.354713
4.54331
3.03444
4.50225
1.36078
0.082918
-0.270938
-1.26522
5.21657
7.39016
2.27985
-0.534509
0.752692
3.42617
-2.80947
-0.166836
-0.795025
0.758385
3.24113
1.65868
-1.66448
1.41824
0.00739141
3.61255
0.955646
-1.94138
-1.41859
-1.95146
-0.120882
2.45229
-1.3153
-1.58218
-2.10659
-1.22981
-3.18031
-0.863108
-0.0175595
-1.80359
-1.46877
3.60899
0.90005
1.35683
-0.0204815
0.722918
-0.323065
-1.40213
-0.247224
0.981378
1.6335
1.51277
0.922319
-0.180544
1.02837
-0.602318
-2.71309
3.90047
-2.03711
1.94385
1.23561
0.598774
-1.16172
-2.41799
2.67518
1.69493
0.862576
-1.71644
1.39667
-0.748857
-0.591204
0.615042
3.79939
1.6114
0.689391
0.33343
0.258171
-0.343647
2.18854
-1.09851
-2.11708
-0.254646
2.58135
-0.171834
-1.24959
-3.30666
3.00158
-0.943728
-0.684629
-0.0228227
2.01726
-1.17883
-0.837874
0.792906
-0.13102
3.93907
2.19199
-1.21054
1.05195
1.07557
8.26448
0.31797
0.759831
0.0556231
5.18379
1.54171
-1.03558
1.69512
-1.04101
0.237648
1.67889
-1.49595
-0.706611
0.797844
-0.330825
-0.290769
-2.16228
-0.597575
2.5338
-4.33268
6.84009
2.04421
-0.754542
-0.651499
0.444304
2.48172
1.24656
3.67742
-0.105866
-2.54465
1.33214
4.18981
-1.65598
6.15386
0.0501002
2.16816
-0.58643
-1.87803
2.04393
0.818247
2.05977
-0.550682
2.26976
-1.12323
-0.58151
-3.63813
-1.07853
-0.379829
1.44677
3.22148
-1.01857
-0.556668
-0.220626
-0.875859
0.564821
-0.620014
2.30564
0.457777
-0.090751
-1.00585
1.48548
-0.698666
2.02863
-0.100087
-1.02332
-0.181957
-0.228751
-0.79324
-0.327386
-0.590641
-1.23242
2.13848
-0.705707
-0.391575
0.810806
0.662964
2.09759
0.907337
0.0414
0.2064
0.0995
0.0099
0.1105
0.0271
0.0498
0.021
0.779924
-1.22827
-1.44976
-0.469163
-0.270792
-1.79439
-1.78246
-3.04789
0.763399
-1.58059
-0.48384
41.1874
-1.36651
-2.82497
-1.34079
0.715671
-0.0288276
-2.17248
-3.00056
-9.64502
-2.34388
-12.0514
1.82301
-1.83759
3.09539
-0.777733
-2.16678
5.67152
-1.8068
-5.66405
-5.0239
-0.322517
0.0888107
-1.40492
-1.7321
-2.23073
0.571656
1.14853
-3.14873
-2.42903
-9.56832
7.02681
0.167169
5.48644
2.96269
-2.29849
2.96851
-1.90375
0.743208
-1.06279
0.796289
-7.02402
-1.65028
0.636312
4.57309
2.42046
-3.6144
0.366603
-4.55625
-0.281711
-0.306562
0.444488
0.912416
-4.9375
4.37829
-3.40168
1.65873
0.227231
5.5485
-3.01521
0.701266
2.7746
-0.672791
5.94118
-2.99047
-1.59451
3.12529
0.855684
-9.77731
2.26501
1.08417
-1.20307
3.13354
4.72514
-3.37209
-6.57133
1.79405
-1.79247
-6.11524
-2.3435
-12.9519
-0.205996
-1.85014
-4.54465
-1.22461
4.32714
1.99817
0.977406
-7.5713
5.56302
-9.21904
5.0799
5.26394
-4.01364
-0.184851
5.01092
0.920241
0.38169
-1.08162
-0.782293
6.08505
-4.16256
7.43494
-1.53498
-0.0272883
-1.81899
0.105659
-2.81428
2.59002
3.20742
-6.85748
0.634733
3.1435
0.518235
1.02463
4.04127
-2.77231
5.18855
1.69462
-1.53988
3.80766
1.34945
1.01544
2.75913
-4.18983
2.85158
2.73456
2.25079
-2.63029
1.95594
-0.747068
-8.19824
-1.66624
0.728878
-0.0317661
-2.12891
0.616716
0.997179
-2.01902
-1.243
-3.94463
-6.20755
5.95463
-1.43845
-2.47644
-3.52432
-1.20599
1.53729
2.69428
-8.15494
-1.79976
-1.94037
-2.51939
0.826214
-1.35739
2.83188
4.18909
2.46296
-1.97016
3.96881
2.87638
4.97215
2.33111
4.37657
-0.114247
-0.9361
-4.11851
-0.83982
-5.40718
-8.92187
-1.02511
4.81271
-5.41778
3.24531
-1.75715
2.06898
2.62581
0.727526
-3.37454
0.51317
0.782946
-5.73633
0.537736
-2.45362
5.28916
2.94874
1.06746
-1.12886
3.85263
-6.15168
-2.3231
-1.81916
-0.160612
1.4508
2.3911
-1.7763
4.84554
-0.351205
-4.08258
1.63763
-3.21575
-0.0950596
0.0690212
3.26816
-6.13755
0.855973
0.304507
1.75357
-6.75698
1.57358
-5.70219
-6.19854
0.107475
-2.60901
0.933997
-3.33222
0.122268
1.94624
-2.09741
-2.73855
8.45113
-0.54806
1.54243
-2.39593
1.84457
0.428186
-5.13883
-4.44618
0.904378
0.299129
4.45718
5.49415
-8.01222
-1.69183
-3.5343
0.420902
-2.56292
4.94182
3.13909
0.94113
1.32566
-1.65283
0.0352
0.0426
0.027
0.1762
0.0156
0.0679
0.04
0.0681
0.356256
0.731177
0.45423
0.851499
0.324898
1.02964
1.01037
0.168528
0.583864
0.133403
0.402213
0.088764
-0.0498847
-13.3961
1.00637
-0.0836007
0.517243
2.84242
-10.2366
-0.433821
1.09793
0.153069
-0.34594
-0.306165
0.313304
1.15963
0.218463
0.288355
0.677716
0.81736
2.6068
-0.362528
-0.317305
4.89038
2.65271
0.129381
-0.450766
0.460906
-1.00476
-0.121886
-1.60329
2.08824
-0.268764
0.336726
0.941706
-1.06098
-2.68151
0.760555
0.734733
-0.215012
0.692412
-1.57928
0.47902
-2.47073
-0.920498
-2.35687
-1.96187
0.34895
0.428508
-0.862837
-0.132669
0.718905
0.476331
-0.107274
-0.402683
-2.47086
1.56285
2.93034
-1.27365
-2.11458
-2.11924
-2.14902
4.80699
-0.372107
0.809525
0.9302
-1.71582
-1.22982
-0.0204392
-0.947922
-1.86809
1.65199
0.572048
1.09955
-0.920686
-2.04096
-0.530549
0.398948
1.81486
-0.981833
-1.48219
-2.23172
-0.0828169
3.23249
0.32033
-0.160672
2.79694
-0.478485
3.2641
-0.247366
1.1861
-1.26514
7.24621
1.32114
-1.83762
-1.4324
-1.91442
-1.60046
3.44196
-0.890399
0.808363
0.676145
1.22801
0.934991
0.441517
-0.257093
1.50393
2.31602
-1.78815
0.158016
0.438512
0.442557
-0.0976289
0.321373
-0.233081
3.06012
-0.916514
2.36537
-0.650482
-1.15071
-1.39317
0.107437
-2.26919
1.08376
-0.925535
-2.69065
-1.36434
1.44636
-3.72699
-0.124724
-0.0851101
1.2841
-2.53955
-0.788886
0.523592
-2.81921
0.902946
-2.07789
-1.30074
-0.266801
0.284837
-2.42842
-0.832985
0.652446
1.84703
4.12348
0.321999
2.33204
0.876549
1.08894
1.5358
-1.83944
4.2957
2.10967
-0.769276
3.39807
2.86163
-0.564035
-0.241513
1.41044
0.848908
0.467387
0.259477
-0.159311
1.90924
-0.242655
0.85897
-1.62938
-2.60126
3.24732
-1.33987
-0.734625
2.20524
1.56217
3.24107
3.38208
0.932415
2.22026
0.836197
0.107533
0.111275
1.34406
0.152117
-0.196613
-2.27355
0.95366
0.586333
0.805044
-3.42454
-4.81233
-1.24272
-2.32423
0.750577
-1.27245
2.30848
-0.81953
-2.2596
-1.32502
0.0975834
-0.221249
1.01479
4.07648
-3.15329
-1.13266
-0.428966
-0.489763
-0.0544556
-0.523352
0.69229
-1.50123
-1.95819
-1.14519
0.822364
-1.43936
1.98831
-0.741739
-0.370376
-1.19023
-1.30795
1.69124
-0.386096
-1.56969
-3.03289
3.35946
1.91071
2.61372
-1.28506
2.64693
1.5235
2.88522
-2.61701
1.3802
-1.43365
0.0953338
2.31021
-1.85404
-2.67841
-1.93585
-1.80597
2.43215
-1.26039
0.904432
0.101
0.0739
0.0686
0.1496
0.0345
0.0816
0.032
0.0176
0.465316
-0.471753
-0.94456
-1.44045
56.4923
-3.4611
-3.41849
-1.46618
-1.0093
-0.961867
-3.56302
-1.19389
-0.976639
0.554876
-4.5281
-2.75582
-3.93463
-2.83949
0.231823
-0.243012
-1.31041
-0.121468
-1.83507
1.21069
1.98172
-1.42737
-11.0714
-4.42778
-1.97799
-1.822
-2.23228
-7.36702
-2.58105
-2.98401
1.97254
-0.274491
-7.01467
-6.58112
3.09632
0.813522
0.026621
6.35365
-5.21685
-0.398341
-7.22076
-2.6298
-6.48069
-3.84763
-0.375321
3.99636
1.10068
-3.69166
-4.38712
-5.6922
5.10801
2.27576
3.22321
-0.0891902
2.05603
-0.685906
-0.751873
8.2614
-2.38006
8.77701
-2.61791
1.93279
-3.38796
-4.42563
-8.55835
-0.501449
-1.90462
-1.24303
-15.2243
0.255081
0.25237
1.73385
-4.78574
-2.0735
-2.27753
-0.436129
-11.6085
-6.65721
2.81531
2.66048
4.37362
3.10513
5.29232
-7.77727
3.93741
2.18563
5.229
0.542149
2.537
6.34619
2.54479
-1.08762
-0.134591
-6.75163
-2.84584
5.33416
8.49364
-6.00614
-5.6165
4.99601
2.30221
0.800344
-1.88202
2.49563
0.824663
4.34384
-1.42015
-2.13208
-4.1428
4.89679
6.61177
4.13684
-4.40204
0.365438
-2.80951
1.38411
2.28134
2.72277
-2.83917
1.07782
-1.40889
4.49549
5.51047
-3.16312
1.76761
-1.89809
-2.41604
4.18682
3.98965
2.8012
6.65308
3.11769
-5.03923
-4.42847
-0.458809
-2.02283
-1.40752
-6.21825
1.10936
2.50805
4.2718
4.46033
-3.2122
-5.21263
-0.956061
1.22575
4.66839
-6.95637
-1.62339
2.97249
1.05979
1.87887
-1.35292
-1.57349
4.56513
-4.33336
-5.13175
-0.749145
0.393223
-1.37709
-0.298479
-6.76485
5.61536
-2.17441
9.19761
1.58531
3.11193
0.3998
1.65241
-2.0333
3.45381
2.76686
-1.2907
-2.50793
-11.9913
-0.258503
-1.04852
2.28424
-4.13124
0.882238
-1.52894
-4.39115
-4.84598
0.932072
-18.9922
-2.82386
-3.47005
-7.40798
2.88021
7.38162
2.22742
-7.43845
3.05591
9.13515
2.29844
1.38055
2.94559
-4.94602
4.68619
-14.0129
-3.66297
-0.816958
8.73347
-1.26635
-0.8376
3.27445
0.910029
-1.35363
-0.347715
-4.92828
-8.99644
-3.69966
-3.15465
-6.24702
1.44053
7.44724
-12.6321
-4.48815
-4.25221
3.7412
-0.879442
-5.50639
0.261416
5.76978
-2.72041
1.348
4.67882
-0.934492
4.61893
1.27719
-6.93418
-6.76295
6.71092
-5.91174
-12.5407
0.721271
2.72014
2.84294
-5.54236
2.81183
0.909479
-1.41832
-2.51702
2.85519
3.21129
1.84851
0.255532
-0.677379
0.062
0.0984
0.0858
0.0812
0.1424
0.2
0.064
0.0558
-0.581395
0.243741
-0.0212613
-0.450545
0.0737523
0.251037
0.0761288
0.288813
-0.212201
-0.348699
0.406692
-0.145021
0.0565825
1.10947
-24.1696
-0.403637
-0.291869
2.68961
-12.8959
0.171857
-0.545287
-1.10928
-0.0622096
1.29163
-1.52768
-0.304387
0.140347
-6.51227
-0.97262
1.28332
0.775642
2.0828
0.848246
-0.819936
-3.77823
0.40387
-0.663572
1.99061
-0.658637
0.442513
-0.284818
-0.3425
-1.77706
-1.14592
0.897134
-2.9609
-0.620603
-1.27524
0.149737
0.842277
-1.8929
0.640685
3.7893
0.553022
5.80767
2.45519
-0.226367
-2.09371
1.81988
2.00157
-1.02829
-0.711206
-1.27527
-1.15396
3.58767
0.420117
-0.458394
3.01351
1.47495
1.36159
-0.253358
-0.93085
0.144024
1.46187
-0.899126
-0.648255
0.787707
4.55371
1.25204
3.48748
2.7225
-5.06453
0.515715
-0.760337
1.35342
-1.32849
-3.84115
-0.134437
-0.793077
-0.0860714
0.340494
2.48606
1.07469
-1.1828
-0.775522
0.123786
-3.63331
0.304206
-1.0466
-2.50366
-1.49882
-0.475226
-0.676738
-2.83797
2.04152
0.753466
1.65729
-2.16405
-0.738635
-0.530218
6.79556
0.672799
-3.53004
2.41764
1.4819
-1.01751
-0.461086
2.28181
0.38177
-2.77119
1.49288
-3.13532
-0.790708
2.92138
-3.30271
-0.512372
-0.119146
-2.02299
1.29407
-1.35839
-2.10749
1.03454
3.83629
-4.46427
-1.27267
4.09007
-1.23499
-0.624355
-2.49057
-1.13876
2.52115
2.40197
0.781225
-3.95069
-2.78937
3.44421
-1.17477
2.18874
-0.0905243
-0.680104
3.91421
-0.546072
-1.1841
-0.145917
3.24129
-0.698943
-0.963331
-3.34522
0.589679
-1.81345
0.607747
9.35863
-2.6422
-0.0364088
1.6242
1.67454
0.290445
-0.246962
0.297386
-1.67875
-2.13831
-2.53967
-1.31942
2.24786
0.121691
2.19456
-0.522644
0.397257
5.05103
-5.81394
0.368281
-0.016927
-4.45851
-0.677159
-5.22153
1.90274
-0.45124
-2.71347
1.48344
-0.920746
-4.04031
0.202948
-0.808067
2.12159
2.10925
0.363988
3.07194
-1.99583
0.493853
0.235162
-2.11995
0.702463
2.5126
3.59948
2.10216
2.21619
0.833997
-3.46352
-1.5759
-0.405448
4.08622
-3.22942
0.894384
1.36373
0.150762
0.448644
4.31081
-0.447641
0.302946
2.81229
-1.35717
0.69516
-4.49292
0.477658
0.927413
1.22952
-4.43852
1.7323
-0.372782
1.34851
-0.261814
3.00885
-0.814938
-1.67915
0.253067
1.40644
-5.12609
-2.50784
-2.80123
0.99264
1.69243
-0.686904
-0.0390683
3.08118
1.12339
-0.56995
-1.19205
0.709355
2.41566
-0.927209
-1.59895
-5.13482
0.1421
0.0528
0.098
0.045
0.1508
0.0868
0.0272
0.2688
-5.35252
-3.0176
54.0282
-1.57178
-1.84383
-2.48892
-2.32857
-0.464018
-0.271464
-0.895872
-0.378399
-2.44365
-0.724885
-0.472112
-1.44931
-0.998123
-8.71375
-11.8682
-6.93981
-0.846322
-2.60085
-0.862307
-1.26446
0.544616
-0.354042
-0.498717
0.365869
2.64511
-6.09566
-4.24055
2.72877
4.37977
-3.99068
-8.95635
-6.57237
-3.3729
8.39333
3.2918
5.77596
4.91071
0.495229
-3.64844
1.17506
0.37892
0.279248
2.41819
3.67828
-1.27145
-1.82826
0.252961
2.77283
-1.72677
-5.13113
3.01828
6.36964
-6.70116
3.63857
1.74868
-0.832351
0.111319
2.78744
-3.14543
-10.485
-5.55431
8.94237
5.51101
1.61559
0.381695
0.269169
5.60155
-1.25166
-3.00183
2.04812
-1.04615
-1.07268
-1.08028
4.38672
-3.17419
2.24059
5.67328
0.951513
-2.13849
1.05335
3.87042
1.96219
-4.82052
2.68348
-4.08602
4.91949
2.7305
-5.7704
0.129271
3.85592
-5.25584
-2.35735
-6.33872
-4.63339
0.419242
-0.396173
-0.721604
2.21416
-8.65323
4.2311
-10.0689
5.32386
-3.13043
1.36599
-0.248714
4.82649
0.845074
2.84342
1.60674
1.43694
0.14281
0.970404
1.44479
-4.02594
-4.40545
1.5716
-2.35013
2.91387
-8.60691
-0.428781
2.83745
0.976983
0.27377
-0.614357
2.51643
-1.60126
0.0247295
0.720985
-1.45322
-1.93938
0.452571
-0.909186
3.52964
-6.51712
-6.66576
1.02404
5.06711
-2.78605
-3.06104
0.377258
-2.09821
7.53171
-9.13593
-0.81445
0.0777114
-5.16862
-2.74372
0.38522
0.556005
2.68102
3.36034
1.86748
-6.04937
-5.39486
-3.69548
6.82273
-4.86551
2.98001
3.69693
-1.16918
4.55738
-3.33353
1.50073
6.12701
-3.16999
3.67174
2.76195
-2.67992
1.38041
-1.23044
1.93996
0.315831
-0.0569464
2.99794
2.30682
-3.63173
-1.74659
-2.03428
8.11419
-0.476665
-4.07289
1.2106
0.0456058
-0.0459012
2.91177
1.97882
0.506531
2.75506
-3.79249
-0.827551
3.09708
-0.51757
1.47012
-0.0360073
-2.90742
6.34776
2.05629
-5.09264
8.10875
0.895408
9.40909
-2.07302
0.597058
3.58397
0.864205
2.27732
-10.8378
3.57552
4.41713
-5.19578
-3.36791
2.71064
-3.89112
0.630691
3.74619
3.0771
-5.32846
-1.22766
0.543869
0.349067
-3.41855
-3.87998
1.80829
3.63788
-4.53765
-2.28826
5.74178
3.48941
-1.58349
-1.57621
-1.74513
-6.43231
-6.00794
0.442376
2.70119
-1.42481
3.77301
0.572067
3.77877
-7.8313
6.04455
-4.34716
1.79452
-0.547948
-0.408519
0.878222
-2.73474
1.0627
-6.51671
0.0235
0.0075
0.04
0.0075
0.076
0.0174
0.171
0.0168
-14.3106
0.26932
0.219149
-0.0151211
0.206176
-0.219933
0.102658
0.291976
0.41044
0.0785221
-0.138423
0.4206
0.360115
0.0950265
-0.129509
-0.0987611
-0.188222
0.295931
0.179552
9.44101
0.0227632
0.862314
-0.612965
1.21699
0.404508
1.60472
0.365831
-0.380576
-0.0365416
0.975474
0.670933
-0.21321
-1.10229
1.89399
-1.44342
-1.06304
0.201352
1.02928
0.0334549
0.68705
-0.919513
-0.752718
0.183822
0.907626
0.315193
-0.593738
0.225825
-0.342865
-0.0360837
0.296698
-0.998606
-0.545063
-1.13122
0.426609
-0.594566
0.126013
-0.589946
-2.04029
0.529564
-0.416392
2.69502
-1.03848
-0.563156
-1.95563
0.0311401
0.643281
1.46915
-0.150062
1.9871
-0.371
0.841432
1.92008
0.633175
-0.888828
-1.22565
-1.19555
0.674202
-2.25855
-0.76934
2.08275
-1.05929
0.019907
2.0438
0.762781
-0.709749
-0.892853
-1.72468
0.69419
-0.392306
0.256345
0.377923
1.17573
1.12506
0.594799
0.495591
-1.53894
0.919914
1.52856
1.57209
0.180867
1.43595
-0.527395
-0.955183
-0.381263
-0.519774
0.914516
0.414207
0.631113
2.37093
0.351333
0.0535518
-1.04659
-0.390944
1.60186
0.942987
-0.148001
0.210342
0.405427
0.108074
2.69338
-0.00305593
1.30135
0.44692
-1.54885
0.877775
1.65758
0.0421489
0.0753723
-0.977647
0.664809
1.12374
1.74649
1.09981
-0.614608
0.0276982
-0.746578
-2.6058
-0.966551
-1.56021
-1.19439
-0.491446
-0.0258372
1.18438
-1.1717
0.345239
-0.975221
0.395813
1.05302
-0.574395
-0.934139
0.941419
1.75013
2.11144
-1.47904
2.33587
0.790589
0.642157
-0.54973
-0.833256
-0.873372
1.18404
0.899663
-1.6164
-0.333655
0.338716
1.33457
1.29103
2.24053
-1.76355
1.09048
-0.502699
1.20737
-1.28428
-1.51725
0.12068
0.181705
0.778455
-1.51936
1.27879
-0.392016
-1.28883
1.09745
2.28801
0.11367
-1.02502
-0.89296
-0.871314
-2.04197
-0.547507
-0.401292
-1.5781
1.68676
1.32168
1.36347
0.0281747
-0.634351
0.593271
-1.26865
1.14541
-1.15162
2.62984
-0.242878
0.826996
0.222931
-0.541244
-0.415364
-0.1806
0.012783
0.923772
-1.41135
-0.115473
1.23584
0.420577
0.796323
-0.35722
0.820642
-1.09023
3.09314
2.0358
-0.24069
2.53555
-1.17616
2.06953
1.52946
0.363
-0.996043
-0.833716
0.692226
0.493648
-0.561185
0.462983
1.91729
0.0204217
1.09372
1.60383
-1.33166
-0.91953
0.242178
-0.697559
-0.127089
-0.0453009
1.07342
0.089341
3.10826
-2.05486
-0.506953
0.347458
-1.64223
-1.82215
-0.852224
0.378788
-0.613167
0.0425
0.0043
0.0114
0.0795
0.0128
0.0107
0.109
0.1028
0.225303
0.236591
-0.20638
0.595571
0.253327
-26.0116
1.19549
0.146221
0.469966
0.622883
0.200281
-0.334791
-0.0334792
0.338004
-0.264684
0.505507
0.393679
5.10649
1.52983
-0.400042
0.865338
0.146238
0.868949
-0.25623
1.68655
-0.416304
1.51606
0.0501796
-0.29952
0.285545
-0.208675
0.492319
-0.603566
-0.994284
3.43536
0.26984
1.83995
-2.1849
0.83171
-0.0817615
-1.88823
2.33844
-2.26532
3.67297
-1.07197
7.36592
-3.93248
2.48104
3.50694
-3.278
-2.54846
-3.77901
0.330591
3.20778
-5.22044
-0.158282
-1.2745
2.01189
-0.381307
3.4105
1.34603
-3.02101
2.31347
-1.7489
4.51523
-0.779297
0.169821
-0.668737
-0.0687427
-2.02696
0.731229
2.1538
-0.903848
0.597019
-0.565805
-1.31976
1.16064
-0.560793
2.37644
1.93151
1.50081
2.17489
-0.358896
2.13713
-1.96942
2.36506
5.5004
5.37954
-0.618707
1.1337
-1.40507
-6.54972
-0.507455
-3.26723
2.2795
-2.28502
-0.748211
-0.295995
0.535581
0.699954
2.59697
2.22411
-3.14324
0.738288
3.14505
0.723613
-0.436056
-0.515783
0.995006
-5.02491
-3.76604
2.28711
0.982473
-2.00034
0.410148
-1.84667
-3.31768
0.535844
-3.71419
1.84469
0.898687
3.48885
-1.16296
-1.55388
2.98264
-3.12632
-1.67338
1.68478
0.0431067
-2.78301
4.80979
-4.15008
3.94572
-0.755266
1.73685
2.28306
-5.23538
2.86034
-2.06083
2.39694
-2.16753
-0.512867
1.07066
-4.4097
-0.818363
2.82652
0.486528
-2.56672
-1.51485
-3.61325
-2.23713
1.31603
1.6118
0.304431
-1.98972
-0.437704
2.38852
-0.768512
9.07366
4.45221
-0.708642
-1.55743
-0.204533
-0.119705
-1.05336
-0.389
1.06305
2.94844
-2.49384
-0.126587
1.01566
1.33392
4.43009
-3.83138
0.220125
-0.328916
1.45155
-7.38064
-0.0242786
1.04773
1.21601
1.86499
0.108123
-0.306583
-3.44791
-0.994457
-0.835449
-0.890438
0.151812
-0.686155
-0.691319
-0.486081
0.479595
-2.20308
2.75328
-2.6175
0.0655886
-1.7253
0.561129
-3.14583
5.41275
4.34178
-0.571833
1.1703
-4.00709
-1.11401
-2.50974
3.03351
-0.192487
7.01579
-2.52343
1.37851
-0.953808
0.726599
-0.675538
4.37812
-4.08827
1.05659
3.82821
-5.84159
1.03677
3.17812
3.51519
3.88421
5.29284
5.50702
-0.241891
-3.0007
0.932825
-1.48932
-2.97505
0.808898
-1.41988
-4.47466
-0.74366
-2.35367
1.04379
-5.79701
3.03256
1.37851
3.23981
-1.73081
2.96578
1.04684
-0.245894
0.333739
-2.97148
1.18822
-2.05092
1.49417
2.73022
-2.04424
0.054
0.068
0.0235
0.0807
0.0228
0.0311
0.0135
0.0532
0.759575
0.56567
1.72713
-0.552878
0.9918
-10.8223
1.11819
0.682704
0.553164
-0.100134
0.935358
0.695862
-0.131719
1.62351
1.36783
0.815043
-0.306638
-0.12289
-11.2718
0.475021
0.266684
2.4839
0.537938
-0.611049
3.6236
0.546017
-2.45941
-0.185728
4.64256
2.35753
-5.08904
0.527962
-5.30711
-1.00858
1.77328
0.534244
0.0547567
1.78581
4.85122
1.61527
0.629075
-1.39547
2.85178
0.0674291
-3.47139
0.593999
6.02138
-1.78908
-1.58475
1.73305
2.11179
-0.903398
-0.510747
-2.67797
6.15874
1.12762
-1.75626
-0.238286
-2.60862
-5.54169
0.33796
-2.09154
4.3722
1.63757
-3.10227
0.174553
-1.78748
-4.66452
1.86645
3.8091
4.5695
4.32652
1.33766
-0.926297
0.0478778
2.33722
3.63788
-5.46355
2.74603
-8.75381
3.76596
1.79869
-4.95932
-3.50915
2.76478
-6.76353
6.20156
-12.8312
-7.5198
1.26388
-0.636503
0.938942
-1.47318
1.23233
7.99134
1.16684
-1.79058
2.63603
-2.33876
3.56491
-3.20396
-3.38636
-0.479461
4.05532
-3.51336
-1.84769
-3.44745
4.40568
-4.67107
2.99842
0.407153
-0.417353
-2.03654
0.474043
-1.41097
0.754062
-0.756778
-0.0305107
0.910241
-0.640031
-3.30878
3.76091
4.48245
5.83628
0.245633
1.49931
-1.0208
4.21143
2.17999
0.56456
-2.98638
0.0579294
-3.54404
2.53734
4.96063
-3.2169
10.1665
3.09751
1.60713
-10.0388
0.722865
-1.3092
-1.64854
5.40093
5.42528
-4.3972
0.90937
1.94356
0.033682
1.15214
-0.669587
-0.43986
0.533984
1.34492
7.77845
-0.487562
-3.24132
0.92627
-3.56078
1.26543
0.0920201
-1.65294
0.897479
-5.69775
1.13217
-0.758823
2.32812
-5.86293
1.94765
0.821823
1.49957
0.0853395
0.235535
3.68273
-0.339152
1.53434
0.520282
3.01774
-6.85541
5.58398
-0.998902
2.16629
2.69633
-2.17785
-0.13202
-2.147
2.01927
0.862988
-0.865801
1.11816
6.13555
2.12878
1.59116
-4.48017e-005
3.16522
1.59493
6.55367
4.08498
-2.06449
4.43593
-8.44186
-11.7569
-1.35705
-4.04645
4.57785
1.02
-1.10538
4.30595
0.245473
-6.2131
3.36592
-2.98788
-3.93998
-3.60526
0.416373
-0.888287
0.0175997
0.720175
-4.00509
5.38983
-0.466111
1.76092
-7.69363
-1.1896
-2.22745
-7.34938
0.0523144
1.29488
-4.17899
2.63756
3.28295
-8.80941
-0.336164
3.11004
-2.9605
-1.34488
-2.04833
-0.181608
-0.4757
0.272196
2.50367
-0.190475
-3.53839
-9.06272
-4.38486
3.37917
6.31233
-0.260279
2.40733
-8.59307
-3.99103
3.10392
0.0516
0.035
0.122
0.0669
0.0548
0.0166
0.0745
0.0225
-6.84467
-0.166985
-1.01896
-1.72937
-1.47263
-0.921038
0.236888
-3.53945
-0.291941
-0.321284
-0.308432
-2.57997
-0.218744
-0.358044
-3.0072
-0.424909
38.809
0.370686
-2.49932
1.3091
1.57695
0.376807
0.548632
-2.66732
1.08383
-2.53686
-1.82247
3.79322
-2.55832
-2.66767
2.04695
0.264353
3.65132
-0.216407
-0.995515
-0.193249
4.12262
0.924218
0.976274
2.44495
1.13962
0.565384
-1.1722
-0.274662
-5.79675
-3.28596
-3.45703
0.519937
1.25361
-1.033
1.75079
-1.42821
0.28409
-3.67865
1.39811
3.65644
1.91425
0.881948
4.76477
-3.4806
-2.78911
2.36365
-1.42911
-0.561545
-2.68715
-7.86263
-7.13786
1.33228
1.16267
-2.75137
-4.18943
-1.15126
0.336631
0.37946
-6.75093
-1.29552
-0.670323
-1.02149
-3.60038
-6.96077
2.57621
-0.21837
1.57753
-1.93349
0.599272
3.53642
-3.38456
-0.7908
0.390697
-0.0130472
-5.25709
0.778486
2.43089
-9.92133
-2.30657
-1.27252
-0.69581
4.42785
-0.685118
-3.43648
-0.0461418
-3.494
1.24299
-1.08034
-3.46831
-2.01941
-9.52648
5.04792
-7.58138
0.634946
-1.66485
-1.82962
-3.4995
-3.20857
-0.445823
-2.19999
0.21808
4.40142
0.960771
0.445414
-2.72507
-3.77318
2.224
-5.85032
1.53913
-2.66702
-7.54374
-0.0705231
0.323345
-3.34746
-3.61627
-1.38548
-4.85466
-1.55002
1.8866
-1.58014
2.82414
-3.26776
3.30082
-2.95044
2.70876
-1.9465
0.158281
-5.11067
0.133686
-1.4591
-2.21478
-3.69079
0.82322
0.857506
-0.891997
3.0786
3.12616
1.63185
-0.968839
2.56647
-1.20328
2.21411
3.70058
-2.38214
0.769174
-1.80888
-9.38355
-2.35067
-2.64189
-3.51399
1.56315
-1.8243
-6.70571
-0.0542345
-0.809415
0.103911
-2.03556
1.24346
-1.23623
-2.04484
-1.76515
-0.776698
-3.07114
-6.9253
3.57641
-3.67229
-2.31493
-8.45252
-3.35975
-0.757334
4.02237
1.5691
0.500578
1.70524
2.03686
5.46732
-1.32972
-6.07967
1.71019
-0.171896
0.907872
4.14349
-0.318622
-2.80645
-3.57094
1.48429
1.56996
-1.68355
0.224028
1.13465
4.95871
3.97931
-2.56578
1.57244
4.40029
-3.80904
-0.385734
2.90021
1.5872
2.86852
3.52959
0.404642
1.35725
-2.53557
0.277514
-0.460067
2.03718
5.5391
-4.53479
-2.27171
-1.55038
1.05249
-3.59383
5.13994
3.46196
-5.00182
0.672259
1.08562
-3.99899
-1.88252
-4.97079
1.61839
0.815024
0.0329155
-1.8574
-1.21666
0.259328
0.313291
-1.89822
-4.65746
-10.5126
-0.254725
-1.51054
-11.2334
-2.76535
-1.75075
0.033
0.04
0.07
0.0912
0.0242
0.056
0.1184
0.0692
0.154315
-0.17971
0.363001
0.576416
-0.00380555
0.277203
0.667064
-0.214221
0.101906
-0.63765
-0.0365596
-0.154045
-23.8434
8.41678
0.207577
0.0180691
-0.45079
-0.0741892
-0.947639
0.00893646
-0.067328
-0.134197
-0.875842
-0.252974
0.170155
1.90705
-1.59924
-0.881807
1.99419
4.04147
-0.85018
0.40411
0.87925
-1.76199
0.932086
1.43671
1.49879
-0.950153
-1.87896
-0.0323972
-0.461581
7.55333
-1.89536
-1.28187
-0.253396
-2.59356
-2.76823
-1.40185
1.30035
-0.144534
2.4475
-1.20726
-0.327647
0.189207
0.0615066
-1.19775
0.822316
0.241691
1.63444
2.1275
-1.55535
-0.0479585
4.43277
0.734714
1.17769
-0.581189
-1.26744
2.15072
-1.06498
0.111129
0.410979
-1.47796
2.07429
4.40625
0.374427
1.34193
-0.699488
1.25997
1.93395
0.00358984
0.478074
0.858737
-1.55174
7.41375
-0.71954
-0.31851
-2.22147
0.802163
3.42663
-0.684129
0.990588
-1.42848
-0.236581
1.64992
0.973857
0.698491
1.45117
3.97097
-2.71372
-0.0706733
6.02401
-0.154557
3.95672
-1.49143
-1.73885
-0.432337
-0.758428
-1.27708
1.81673
-2.27938
-0.808841
-1.65695
0.427848
4.88245
0.0478027
-0.131698
4.31321
-0.465688
2.34789
1.38027
2.29196
4.80927
-3.47837
-0.785581
-1.86031
5.62603
-1.31153
-0.845538
-1.9332
-0.357175
-2.33492
1.54275
-1.19115
-0.997268
0.0627798
-0.65486
-0.279178
1.34058
-1.54457
-0.654708
0.762391
-1.74292
-1.29325
-2.5432
-1.443
-2.24552
1.70392
-2.14557
1.5546
-0.887453
-0.640531
1.44624
-1.56664
-0.731472
1.63367
1.63123
5.80143
3.29834
-0.828891
-1.86975
-1.61929
-0.33889
0.650728
2.66431
3.17673
0.665037
-1.34805
-1.2415
-1.35103
2.48435
0.666695
0.727921
0.629212
-0.153806
0.363135
-1.20266
-0.69646
-1.78948
-5.34123
2.28116
-0.0691277
-0.103719
0.386
1.88679
-1.30457
-2.26835
0.0328634
1.04663
0.604596
0.0692599
-0.13872
-1.40302
-0.959833
-1.23923
-0.387355
1.80539
1.77249
-0.797967
-2.04157
-0.508644
-1.81068
-0.00970588
2.94151
-1.23583
0.151317
-2.64926
-2.39466
-1.3317
0.0534692
-1.45323
0.606955
1.10283
0.691553
-2.28424
4.82541
0.489249
1.29036
2.31938
-0.48772
1.1336
-2.55721
1.02191
1.75133
-0.174062
6.41846
-0.470194
-3.98497
1.15182
0.891352
-1.61185
3.23489
-0.868199
0.0907597
0.537164
0.954327
-0.241726
0.311651
3.25237
1.13205
3.5396
-1.04303
-0.0197798
0.851042
-1.72583
4.54408
-1.03288
-0.83627
-1.42199
-1.28273
-0.970382
-1.75204
-0.164853
0.1035
0.021
0.0328
0.047
0.0172
0.0006
0.0014
0.1278
-52.4872
-0.0960709
-0.0245095
0.0315069
-0.0788176
-0.0782037
-0.0658883
0.10254
-0.137377
0.0251084
0.152232
0.0733884
0.0376941
-30.7683
0.0568614
0.165661
0.099999
-0.130527
0.060034
0.0159388
-0.0467688
-0.117992
-0.0171758
-0.00232237
0.0761505
0.271119
0.10321
-0.180152
-0.21735
-0.0235094
-0.0223464
0.067714
-0.147413
-0.0658455
-0.101372
0.0476894
0.118473
0.129188
8.32608
-0.0428892
0.077206
0.0329876
0.0251382
-61.3258
-0.00178855
0.0402668
0.0383662
0.00553165
-0.0136879
0.0392891
-0.0580704
0.0623128
0.041598
-0.0158628
0.00466673
0.0434466
-0.0410177
0.046792
-0.0752755
-0.00623937
-0.0696145
-0.138766
-0.103288
-0.025241
-0.0694588
-0.110876
-0.0608013
-0.048751
9.33432
0.123385
-0.0219407
-0.081855
-0.0225451
0.0617952
-0.0454421
0.0925233
0.0662562
0.0191815
0.0193354
0.114268
0.0449505
-0.148248
0.0467125
0.00969513
0.125006
-0.0421332
10.9976
0.0174661
0.00303778
-0.0385391
-0.063756
-0.0876108
-0.120324
-0.0559155
0.0621405
0.0187438
0.0387013
-0.124782
0.0281679
-0.015493
-0.363516
0.0585338
0.034037
-0.0821424
-0.227506
0.0940003
-0.148059
3.80845
0.0664268
0.220599
-0.071439
-33.7376
0.0780949
0.0958765
-0.0550334
-0.252915
-0.0308801
-0.187339
0.108777
2.82933
-0.0374632
-0.108601
0.00345646
0.0683575
-0.164942
-0.0163262
0.182202
0.0143523
-0.0346794
-0.0943387
-0.131476
-0.121338
-0.00745738
0.0718149
10.805
0.0464441
-0.0835464
0.0101378
0.0876139
0.0266177
-11.7984
-7.90354
-5.30437
16.1685
-0.649471
2.33136
-3.53674
-13.4431
-4.99623
4.18836
-2.85292
11.894
-6.22082
14.8162
-6.44477
2.25596
9.79929
4.19737
-5.10409
-0.800649
-0.023588
-0.0108346
0.0493659
-0.0140901
0.0194731
-0.0247915
-0.0301496
0.0678569
0.025061
-0.037393
0.0100679
-0.0707207
7.52998
0.020167
-0.022526
0.0532847
0.0123435
-0.00967893
-0.051599
0.0791651
0.0429372
0.0301526
-0.0137821
-0.0243248
9.91083
0.0508287
-0.0278936
-0.205429
0.00405765
0.18458
-0.0330286
0.0604065
-0.00422325
0.040441
0.0046772
-0.0668967
-0.0345978
0.0346234
-0.200689
0.00274241
0.0308202
-0.0620634
0.0919154
0.0945586
-0.0606632
-0.00162773
0.0371194
0.0396229
-0.0992888
-0.0933287
8.69333
-0.175927
0.0715161
0.0243546
-0.105851
-0.0121405
-0.0832886
-0.0586473
0.0295987
0.0479082
-1.28662
-0.299908
-0.555341
0.357851
-0.0624047
0.0765345
-0.340191
-0.734254
-0.454033
0.387127
-0.65793
-0.318763
-0.381194
0.0236349
-0.515665
19.1219
-0.897174
1.41672
-0.380787
-0.0878464
0.192418
0.0924037
0.0348629
0.225001
0.111856
-0.052626
-0.170449
-0.382335
-0.00378033
0.190235
0.000201002
-40.359
0.174092
-32.1644
-0.0958731
0.115999
-0.00458897
-34.8275
-0.0992534
-0.329735
0.0117885
-15.5449
0.0375087
-0.0110082
0.0339548
0.0448258
-0.213228
0.0833649
-0.00876064
0.0342931
0.0041714
-0.0118522
0.083542
0.0236384
-0.00407965
-0.0728152
0.0227045
0.00586313
-0.0462699
0.066181
-0.186007
-0.0886893
-0.0480946
-0.0280338
-0.0193495
-0.0421296
-0.22373
-0.00354843
0.0458111
-50.5996
0.137216
0.0513095
0.0170858
0.121315
0.0200711
0.117833
0.210999
-0.149549
0.162392
0.131349
0.0328377
-0.0435226
-0.102929
0.0388634
0.0321127
-0.0112709
-0.0138637
-0.0372172
0.0127687
0.0460925
-0.146209
-0.04173
-0.0327447
-0.0749413
0.00207586
-53.7159
-0.0771759
0.0689023
-0.000288903
0.0486213
-0.0172205
-0.011616
-0.0438038
0.0801231
-0.0114059
-50.1347
0.0066105
-0.056693
0.0199241
-0.0172763
-0.00447858
0.0328465
-0.0704535
-0.0854511
-0.0104991
-0.0490207
0.0468643
-0.0316905
-0.0117501
-0.0173849
-0.369852
-0.0725169
0.0713735
0.131135
0.0427184
0.0885986
-0.0116228
-0.0978979
0.00124212
0.0506464
-0.0095616
-0.0900417
0.0429441
0.118591
-0.116994
-0.0992477
-0.0319082
0.145973
0.00215574
-53.925
-0.034734
-0.0147626
0.0195622
-0.00108119
-0.0329042
-0.0372957
0.00971853
-0.0179809
-0.0270263
0.0518818
-0.0469222
0.0445351
-0.0448456
0.0551275
0.0474844
0.0644364
-47.4076
-20.3503
0.06656
0.0906906
-0.0380416
-0.0682173
9.73389
-0.0242811
0.0598321
0.0286072
0.0166699
0.00688161
-0.0146647
-0.0131868
-0.0949835
0.0372439
0.00668629
0.00507286
-0.00122202
0.0695749
-0.0462081
0.00043326
-0.0286821
0.0258839
-0.0438314
-0.0455417
-0.0288293
-0.000589029
-0.144215
-0.0325216
-0.0746092
-0.00103686
-0.0875422
-0.04105
0.000482024
-0.00277117
-0.030404
0.0241242
-0.0331036
3.23668
-0.020294
0.0027253
-0.010638
-0.0582129
-0.0303606
-0.0901157
3.3748
-0.0661132
-0.127501
-0.0542452
-0.0802558
-0.0177709
-0.00410461
-0.080883
-0.0841801
-0.10148
-0.0726105
0.0171731
-0.0304696
-0.0554704
-0.0959326
0.0109696
-0.136159
-0.0686117
-0.077385
0.0211068
-0.0959989
-0.00242611
-0.101919
0.00620873
4.68818
-0.0124649
-0.1192
-0.0546748
-0.0572599
-0.0606461
0.0130598
-0.0325869
-0.0581771
-0.0454771
-0.0206921
0.0355898
-0.0456912
0.00635473
0.0125969
-0.0797213
-0.0359401
-0.00636235
-0.0359778
-0.0510507
-0.104235
-0.0245919
-0.0747473
-0.0422444
0.0170593
-0.0490645
-0.0905753
0.0132439
-0.0282434
-0.0248307
3.83078
-0.0366569
-0.0370085
-0.0851093
0.00616267
-0.123408
-0.0828648
-0.0532273
-0.0185687
-0.0550442
-0.0146152
0.0100121
5.89171
-0.0813882
-0.0960286
-0.0822196
-0.0486507
-0.000514407
-0.0993337
-0.0742354
-0.0684635
-0.063747
-0.0294084
-0.0846404
-0.00460655
-0.0688251
-0.0298925
-0.0365875
-0.0366259
-0.0304437
-0.0482414
-0.00515926
-0.0597637
-0.0323355
-0.0364231
-0.0475917
-0.0225383
0.020617
-0.0511092
0.0366506
0.00634997
-0.0380648
5.14586
-0.0118731
-0.0403449
-0.0833809
-0.0539526
-0.230299
-0.0995639
-0.0690477
-0.13302
-0.0653675
-0.123671
0.0402703
-0.0647283
-0.244883
-0.109637
-2.01881
0.037885
-0.0307725
-0.0394431
0.114494
-0.180267
-0.0641606
-0.0624052
-0.0570574
-0.0136551
4.74273
-0.0230101
-0.0193511
-0.0379798
0.0274206
-0.0372235
-0.00723845
-0.175499
-0.0256011
-0.0765006
0.0739783
-0.0202105
0.0259042
-0.0331957
-0.0572168
-0.0887912
-0.0502583
-0.0505386
-0.0780905
-0.0627342
-0.0211748
0.0269057
-0.0196006
-0.0583202
0.00392882
-0.0464879
0.0072212
-0.0626774
-0.0275091
0.0189585
-0.0309312
-0.0517651
0.018862
-0.072633
-0.0109687
-0.0603116
4.90752
-0.00859474
0.0180558
-0.0640418
-0.0310582
-0.116507
-0.0103646
-0.0241639
0.148296
-0.0808725
-0.0375212
0.00487536
-0.01546
0.0228441
0.0618193
3.89179
-0.0463878
0.0254915
-0.0387272
-0.00925185
-0.00591745
-0.0576168
-0.141238
-0.0948312
-0.027327
7.59854
-0.0287634
0.0331025
-0.0197999
-0.0399
-0.000928469
-0.0342493
-0.0668007
0.103312
0.0388045
-0.0647203
-0.105446
-0.0128669
-0.0708246
-0.0559173
-0.0560726
-0.100119
-0.10935
0.0441353
-0.0654515
-0.102356
-0.0419665
-0.0205774
0.0151432
-0.102434
-0.0526014
6.44818
0.00322845
-0.0439268
0.0594883
0.0196393
0.0695146
-0.0813459
-0.0865415
-0.0640442
-0.0206995
-0.105973
-0.0441769
-0.0666471
-0.0128753
-0.131937
0.0362129
-0.123213
-0.00350015
-0.0730958
0.0386903
-0.046703
-0.0356411
-0.0394186
0.045422
-0.0526139
0.0215695
-0.0594307
3.82338
-0.111388
0.0328056
-0.0126391
-0.0521615
-0.0037768
0.000104917
-0.0662099
33.2464
-0.0631837
-0.0272211
0.042928
-0.0257131
0.00983472
-0.0516376
-0.0646868
-0.0136688
-0.0020125
-0.0681423
0.018382
0.00924447
-0.0359382
-0.0697997
4.14788
-0.00689927
-0.0136482
0.019108
-0.0371471
-0.0202967
0.0028205
-0.0121658
-0.035778
-0.0201947
0.00557532
-0.0186611
-0.0368079
0.0302267
-0.0124491
-0.0294786
0.0554238
-0.0231688
-0.0029901
0.0107273
-0.0640265
0.0218726
0.0314761
0.0177059
-0.015073
-0.002361
0.0370262
-0.00442603
-0.0164874
4.60679
0.0354114
0.0794907
0.0280965
0.0419373
-0.00916238
0.00119205
-0.0568613
-0.00189269
-0.0599337
0.035949
0.00755934
5.69424
-0.00688527
0.0013959
0.0232177
0.0286371
-0.059686
-0.0126426
0.00751514
-0.0302346
-0.000402879
-0.0217155
-0.0376994
0.0258352
-0.0149286
0.0438753
-0.0309756
-0.0288263
-0.0244314
0.00420924
-0.0113811
0.0583553
-0.00124065
-0.0484903
-0.0473733
-0.000198482
-0.0214758
1.04424
-0.033425
-0.0451679
-0.00242083
-0.023866
-0.0247318
0.0134564
-0.0368106
-0.019478
-0.0187488
-0.00188762
-0.00399884
-0.0100415
-0.08437
0.011433
-0.042597
-0.0299343
-0.0332636
-0.0202252
-0.00441388
-0.00460062
-0.0188445
-0.0140073
0.0213064
0.0311878
4.4431
0.0248673
-0.0118509
-0.0337791
-0.0152861
0.00187143
-0.0398481
-0.0649219
0.0394732
0.0180054
-0.0219645
-0.0174558
-0.0487278
-0.00894998
-0.0185545
-0.0196002
0.0227403
-0.0443215
-0.00255403
24.2698
-0.0334855
-0.0338703
-0.00955132
0.0144487
-0.0361674
-0.0277577
-0.0618146
-0.0530828
0.0321278
0.218914
-0.0520497
-0.0916342
-0.124528
0.827207
-0.0336013
0.00785316
-0.0805539
-0.0888676
-0.0798741
-0.0237806
-0.015678
-0.00848799
0.0838505
-0.107612
-0.0231662
-0.0398988
-0.0675566
-0.0477607
-0.0836198
0.0443255
-0.0108643
-0.0731773
-0.0382007
-0.0538582
-0.141544
-0.0158173
-0.115819
0.0994418
0.0497094
0.433344
0.0955528
0.0337324
-0.0536202
-0.0345768
-0.0966616
-0.0403489
-0.0889301
-0.0517694
-0.111808
0.0751353
-0.0359855
-0.0766
-0.0617701
-0.0839547
-0.0942488
0.0890962
-0.0102449
-0.0416231
-0.044978
0.329597
0.212294
-0.0293311
-0.0679476
-0.062289
-0.119332
0.0149093
-0.0820357
-0.00875562
-0.0218178
-0.035968
0.00997361
-0.044022
-0.0469118
0.102644
-0.028538
0.0199901
-0.0684937
0.0314424
-0.0666935
0.378179
0.0237098
0.00317406
-0.0526981
-0.0241636
-0.0367882
0.0124333
-0.0903064
-0.0515308
0.000361811
-0.039928
-0.0362236
-0.0500713
0.00544408
0.0119131
-0.0645581
-0.0320892
-0.0859932
0.0445726
-0.0290317
0.121691
0.105502
0.0418167
-0.0308733
-0.0185857
-0.0268417
-0.0430595
-0.0308948
-0.010557
-0.00820862
-0.0225188
-0.0114025
-0.0249968
-0.0323299
0.0709239
-0.00302628
0.000264826
-0.0274185
0.0245287
-0.0129001
-0.0256949
0.0168374
0.00506078
-0.0144763
-0.0141634
-0.0198989
-0.0136987
-0.0152684
-0.0187791
-0.01919
-0.047433
-0.00818973
-0.0459636
-0.00780658
-0.0131408
-0.0336517
0.000298697
0.00956924
-0.0144887
-0.0102077
-0.0026472
0.087405
0.0220167
-0.0425989
-0.00653248
0.0296872
0.00418386
-0.0344909
-0.00738853
0.0149263
-0.0180998
-0.0285402
-0.0236805
-0.0147504
0.0837453
-0.0303511
-0.00708495
-0.000973777
0.0093792
-0.0358029
-0.00832089
0.019442
0.00908392
-0.0264711
-0.0336389
0.0133364
-0.00338916
-0.0408299
-0.0299541
-0.0196296
0.0070847
-0.0207394
-0.0160085
-0.0133516
-0.00706568
0.00142994
-0.000821697
-0.00254801
-0.0139368
-0.0306927
0.122736
0.0110289
-0.0263245
-0.0148988
-0.00817464
-0.0184152
-0.0181505
-0.0283608
0.0167007
-0.00391159
-0.00804663
-0.00280075
-0.0035358
-0.00812187
-0.0020767
-0.00395081
0.000225999
-0.00751073
0.00348717
-0.0082902
-0.00377313
-0.00497947
0.0011825
-0.00334457
-0.00193586
-0.00330168
-0.00243606
-0.00578873
-0.00438134
-0.00889433
-0.00140936
-0.01342
-0.00187977
-0.00970107
0.00612614
-0.00360145
0.00078452
0.021823
0.00194156
-0.0130868
-0.00223374
-0.0166294
-0.00679488
-0.0309495
-0.00563196
0.00148452
0.00245913
-0.00513448
-0.00910279
-0.000973511
-0.0025398
-0.000679293
-0.00105869
-0.00382038
-0.00108218
-0.000998402
-4.20811e-005
-0.00139445
-0.00126687
-0.000642251
0.000716113
-0.000902975
0.000368953
-0.000938359
-0.000428684
-0.000791543
-0.000635276
-0.00134809
-0.0012243
-8.65438e-017
-1.25066e-016
-9.42738e-017
-1.35149e-016
-1.49653e-016
-9.30845e-017
-1.25789e-016
-3.88062e-017
-1.48698e-016
-1.22853e-016
-1.44505e-016
-7.1424e-017
-6.61727e-017
5.38785e-017
-1.08132e-016
-1.30297e-016
-1.1293e-016
-1.18017e-016
-1.10081e-016
-1.135e-016
-6.91281e-005
-0.000423676
-8.03296e-005
-0.000105457
-0.000475366
-9.55454e-005
-0.000104339
-6.76552e-006
-0.00021412
-5.81471e-005
-0.000135798
0.00024345
-0.00010454
2.68061e-005
-9.5347e-005
-5.14687e-005
-7.98159e-005
-7.20496e-005
-0.000111937
-8.39603e-005
-0.000946169
-0.00360737
-0.000980308
-0.00123699
0.00750246
-0.000660109
-0.00133581
6.59732e-005
0.00232114
-0.00164434
-0.00267649
-0.000811057
-0.0019289
7.62207e-005
-5.63331e-005
-0.000771331
-0.000369357
-0.000393273
-0.000662815
-0.000799271
8.78563e-017
1.09724e-016
1.2203e-016
1.26386e-016
1.46664e-016
1.10555e-016
1.2138e-016
3.47607e-017
1.47354e-016
1.36717e-016
1.30335e-016
7.98473e-017
5.36138e-017
-8.33572e-017
9.51209e-017
1.48323e-016
1.65961e-016
1.3202e-016
1.56819e-016
1.30202e-016
9.37782e-017
1.04495e-016
1.20011e-016
1.31298e-016
1.62163e-016
9.53307e-017
1.38564e-016
4.1146e-017
1.38164e-016
1.29637e-016
1.36367e-016
1.00343e-016
7.84109e-017
-7.12049e-017
9.70192e-017
1.34613e-016
1.48316e-016
1.07369e-016
1.62506e-016
1.41102e-016
7.94008e-017
1.24315e-016
1.07732e-016
1.12906e-016
1.51412e-016
7.79345e-017
1.4601e-016
4.79745e-017
1.52698e-016
9.54338e-017
1.23864e-016
6.5685e-017
8.64931e-017
-7.30178e-017
1.22103e-016
1.52099e-016
1.40943e-016
1.14004e-016
1.42927e-016
1.49026e-016
-5.79261e-017
-1.08057e-016
-7.39655e-017
-1.19617e-016
-1.36728e-016
-6.93597e-017
-1.10949e-016
-2.02648e-017
-1.57188e-016
-1.10701e-016
-9.91542e-017
-8.96984e-017
-5.01161e-017
3.74201e-017
-5.59522e-017
-9.03988e-017
-9.24028e-017
-8.55222e-017
-1.24917e-016
-1.19977e-016
-0.000946169
-0.00360737
-0.000980308
-0.00123699
0.00750246
-0.000660109
-0.00133581
6.59732e-005
0.00232114
-0.00164434
-0.00267649
-0.000811057
-0.0019289
7.62207e-005
-5.63331e-005
-0.000771331
-0.000369357
-0.000393273
-0.000662815
-0.000799271
-8.23375e-017
-1.22515e-016
-9.77018e-017
-1.12608e-016
-1.17771e-016
-5.22839e-017
-1.26392e-016
-3.73542e-017
-1.29817e-016
-9.89761e-017
-1.35346e-016
-7.17748e-017
-6.47112e-017
3.08368e-017
-1.08242e-016
-1.12738e-016
-1.17446e-016
-1.00655e-016
-1.37221e-016
-1.13019e-016
8.17697e-017
1.43764e-016
1.23307e-016
1.37199e-016
1.31298e-016
9.34473e-017
1.22309e-016
4.27151e-017
1.49884e-016
1.08712e-016
1.38602e-016
9.12447e-017
6.0816e-017
-7.6217e-017
1.14537e-016
1.56947e-016
1.46215e-016
1.37834e-016
1.60328e-016
1.49874e-016
7.03469e-017
1.31429e-016
8.98686e-017
1.01218e-016
1.55469e-016
5.43549e-017
1.19379e-016
3.08197e-018
1.49048e-016
1.2954e-016
1.07837e-016
1.04529e-016
6.19043e-017
-5.93138e-017
9.34651e-017
9.72894e-017
1.02556e-016
1.2399e-016
1.38406e-016
7.76921e-017
6.32765e-017
8.92465e-017
8.08433e-017
1.10165e-016
1.47196e-016
7.99931e-017
8.85957e-017
1.33386e-017
1.55075e-016
1.05825e-016
1.0423e-016
7.82193e-017
1.00807e-016
-3.57701e-017
5.85259e-017
9.86195e-017
9.52713e-017
1.02092e-016
1.3941e-016
1.12008e-016
9.276e-017
1.25517e-016
1.13547e-016
1.32348e-016
1.4009e-016
5.46643e-017
1.27915e-016
1.40816e-017
1.46401e-016
1.0243e-016
1.12358e-016
6.80668e-017
8.01969e-017
-8.16144e-017
1.16875e-016
1.28837e-016
1.18152e-016
1.10292e-016
1.78166e-016
9.8073e-017
-7.96361e-017
-1.2107e-016
-7.7252e-017
-9.97821e-017
-1.4543e-016
-4.31624e-017
-1.12946e-016
-5.27488e-017
-1.7042e-016
-8.93825e-017
-8.31908e-017
-7.68992e-017
-8.76632e-017
2.02251e-017
-7.33308e-017
-9.19876e-017
-9.17415e-017
-9.98098e-017
-1.33122e-016
-9.21119e-017
-8.6247e-017
-1.20509e-016
-9.51828e-017
-1.21927e-016
-1.2756e-016
-8.84369e-017
-1.39745e-016
-3.99602e-017
-1.2845e-016
-1.01168e-016
-1.28013e-016
-8.27765e-017
-5.36884e-017
4.13054e-017
-9.833e-017
-1.02976e-016
-1.17228e-016
-1.00988e-016
-1.2547e-016
-1.13874e-016
-7.49983e-017
-9.4859e-017
-1.1022e-016
-1.0541e-016
-1.42019e-016
-7.2076e-017
-1.36352e-016
5.27708e-018
-1.48466e-016
-8.72878e-017
-1.41765e-016
-6.21781e-017
-7.37795e-017
6.29509e-017
-1.24623e-016
-9.3401e-017
-1.47726e-016
-8.54715e-017
-1.4836e-016
-1.29602e-016
-9.3693e-017
-1.08225e-016
-1.28043e-016
-1.13449e-016
-1.14626e-016
-7.76133e-017
-1.11456e-016
-3.82496e-017
-1.15082e-016
-1.0531e-016
-1.10954e-016
-7.91041e-017
-7.43685e-017
4.85062e-017
-1.14022e-016
-1.00284e-016
-1.07878e-016
-9.12739e-017
-1.36468e-016
-1.21031e-016
6.62047e-017
1.11233e-016
5.39769e-017
1.07112e-016
1.48903e-016
4.06661e-017
1.17442e-016
7.88117e-018
1.66343e-016
1.01931e-016
1.18016e-016
1.04782e-016
5.48068e-017
-3.17462e-017
5.90696e-017
1.0395e-016
8.30424e-017
7.39141e-017
1.14383e-016
1.14978e-016
-5.60728e-017
-9.20319e-017
-1.25622e-016
-1.0842e-016
-1.27404e-016
-6.77923e-017
-1.18489e-016
-5.04729e-017
-1.57912e-016
-1.16954e-016
-1.16325e-016
-8.8009e-017
-5.65634e-017
8.53787e-017
-1.10329e-016
-1.45546e-016
-1.39135e-016
-9.72168e-017
-1.45881e-016
-1.29028e-016
9.2968e-017
1.34118e-016
1.02632e-016
9.95713e-017
1.19375e-016
8.08714e-017
1.21614e-016
2.78884e-018
1.27714e-016
9.46448e-017
9.93165e-017
1.03666e-016
5.35035e-017
-3.69076e-017
1.10485e-016
9.1955e-017
1.05361e-016
8.45814e-017
1.46365e-016
1.0359e-016
7.92665e-017
7.75945e-017
1.0072e-016
1.20396e-016
1.45806e-016
4.78241e-017
1.33433e-016
2.29198e-017
1.42275e-016
9.92322e-017
1.18722e-016
7.0836e-017
6.16982e-017
-7.35072e-017
1.01092e-016
1.2664e-016
1.4545e-016
1.01736e-016
1.54249e-016
1.23228e-016
6.18421e-017
9.95562e-017
1.06024e-016
1.15717e-016
1.68087e-016
1.01905e-016
1.0295e-016
2.90151e-017
1.51056e-016
1.14027e-016
1.36049e-016
9.72858e-017
8.77447e-017
-6.83935e-017
1.14236e-016
1.10639e-016
1.37697e-016
1.03155e-016
1.22631e-016
1.44702e-016
-1.01059e-016
-1.05761e-016
-8.45209e-017
-8.33726e-017
-1.32257e-016
-4.69692e-017
-1.17505e-016
-2.46327e-017
-1.23401e-016
-9.14508e-017
-1.3482e-016
-8.88019e-017
-4.89927e-017
3.29904e-017
-8.58201e-017
-7.40016e-017
-1.28963e-016
-1.26381e-016
-1.16188e-016
-8.5149e-017
8.132e-017
9.98115e-017
1.15104e-016
1.37149e-016
1.4193e-016
5.77532e-017
1.59739e-016
2.1096e-017
1.45575e-016
9.70359e-017
1.45478e-016
9.78948e-017
8.60053e-017
-7.05279e-017
9.91548e-017
1.22905e-016
1.53641e-016
1.17592e-016
1.55056e-016
1.54264e-016
-1.03509e-016
-1.16939e-016
-1.19137e-016
-1.21918e-016
-1.44258e-016
-6.82454e-017
-1.42252e-016
-9.90353e-018
-1.51229e-016
-1.14971e-016
-1.21425e-016
-6.27949e-017
-8.43131e-017
5.80844e-017
-1.14548e-016
-1.38626e-016
-1.30611e-016
-8.36499e-017
-1.57824e-016
-1.16955e-016
-7.3628e-017
-1.1588e-016
-1.2224e-016
-1.16352e-016
-1.34588e-016
-8.54935e-017
-1.38808e-016
-4.34877e-017
-1.52102e-016
-1.21226e-016
-1.58959e-016
-7.7907e-017
-7.43143e-017
9.1456e-017
-1.38284e-016
-1.43075e-016
-1.56493e-016
-1.19665e-016
-1.67625e-016
-1.81119e-016
-8.61824e-017
-1.08191e-016
-7.28642e-017
-1.21996e-016
-1.48502e-016
-3.98176e-017
-1.0799e-016
-2.33455e-018
-1.43543e-016
-9.86287e-017
-1.31327e-016
-8.62714e-017
-6.80586e-017
3.43827e-017
-6.84354e-017
-1.09482e-016
-9.88296e-017
-8.59575e-017
-1.31896e-016
-1.00111e-016
5.95373e-017
8.45905e-017
5.35849e-017
9.3578e-017
1.3358e-016
5.74258e-017
1.12843e-016
5.24177e-017
1.87139e-016
9.09587e-017
1.08191e-016
9.24913e-017
4.92321e-017
-1.55865e-017
7.10581e-017
1.09568e-016
1.05243e-016
8.67467e-017
1.03763e-016
7.81064e-017
-8.59815e-017
-1.24497e-016
-1.16493e-016
-1.48951e-016
-1.54966e-016
-7.39479e-017
-1.36883e-016
3.45393e-019
-1.58393e-016
-1.11319e-016
-1.20745e-016
-7.62661e-017
-7.69997e-017
7.66005e-017
-1.22155e-016
-1.29525e-016
-1.49165e-016
-1.30763e-016
-1.69736e-016
-1.61433e-016
5.42443e-017
1.13374e-016
1.21745e-016
1.46048e-016
1.77028e-016
8.0522e-017
1.44439e-016
2.47268e-017
1.44035e-016
1.27419e-016
1.33108e-016
6.26176e-017
4.71442e-017
-7.29311e-017
1.25291e-016
9.84948e-017
1.32244e-016
1.06744e-016
1.62995e-016
1.33521e-016
-9.13473e-017
-1.13118e-016
-8.76695e-017
-1.08644e-016
-1.34226e-016
-8.05479e-017
-8.29869e-017
-1.99583e-017
-1.60898e-016
-9.11232e-017
-1.25409e-016
-4.94767e-017
-7.06737e-017
-5.6613e-019
-7.84999e-017
-7.61886e-017
-9.04541e-017
-9.79607e-017
-1.40759e-016
-9.90035e-017
-8.3339e-017
-1.1136e-016
-9.81338e-017
-1.0395e-016
-1.54925e-016
-7.1129e-017
-1.21406e-016
-3.50445e-017
-1.39618e-016
-9.47448e-017
-1.24626e-016
-9.12841e-017
-6.92617e-017
8.88848e-017
-9.9756e-017
-1.34202e-016
-1.41201e-016
-9.39715e-017
-1.57781e-016
-1.32077e-016
7.99017e-017
9.53876e-017
9.3711e-017
1.0474e-016
1.38967e-016
4.93921e-017
1.29925e-016
4.27652e-017
1.43928e-016
1.22375e-016
1.15226e-016
9.89312e-017
6.17325e-017
-5.91424e-017
1.13878e-016
1.41499e-016
1.67053e-016
1.19597e-016
1.70254e-016
1.5185e-016
7.78679e-017
9.28856e-017
1.1995e-016
1.35017e-016
1.57794e-016
5.26142e-017
1.54547e-016
8.03557e-018
1.28366e-016
8.91102e-017
1.30435e-016
9.15409e-017
5.74062e-017
-6.20697e-017
1.12402e-016
1.2326e-016
1.3744e-016
1.13535e-016
1.61396e-016
1.3524e-016
6.82782e-017
9.00748e-017
8.49255e-017
9.70023e-017
1.33835e-016
7.35048e-017
1.45969e-016
2.39714e-017
1.12989e-016
1.001e-016
1.33809e-016
1.0579e-016
7.02641e-017
-5.60972e-017
1.1507e-016
1.07014e-016
1.46628e-016
1.03297e-016
1.1422e-016
1.34347e-016
9.46389e-017
1.31328e-016
9.62707e-017
1.2482e-016
1.35851e-016
4.75284e-017
1.5078e-016
5.70618e-017
1.5745e-016
1.01779e-016
1.093e-016
9.61861e-017
9.43646e-017
-6.33107e-017
9.41864e-017
1.14109e-016
1.13576e-016
1.03795e-016
1.44371e-016
1.27065e-016
6.39111e-017
8.68174e-017
4.86141e-017
1.18178e-016
1.38064e-016
6.11523e-017
1.18111e-016
4.01459e-017
1.91471e-016
9.60402e-017
1.20534e-016
7.94236e-017
6.71409e-017
-3.57014e-017
7.26638e-017
7.95653e-017
1.12149e-016
7.94425e-017
1.15795e-016
7.39211e-017
-7.10891e-017
-1.17256e-016
-9.74402e-017
-1.42663e-016
-1.34594e-016
-4.06596e-017
-1.23467e-016
-1.25568e-017
-1.45116e-016
-1.04504e-016
-1.25807e-016
-9.38316e-017
-5.81256e-017
6.25542e-017
-9.80056e-017
-1.17801e-016
-1.20513e-016
-1.17579e-016
-1.30236e-016
-1.16881e-016
-7.00806e-017
-1.2161e-016
-1.5848e-016
-1.40571e-016
-1.38806e-016
-7.7762e-017
-1.55393e-016
-2.73709e-017
-1.5706e-016
-1.11406e-016
-1.22321e-016
-9.4796e-017
-7.73457e-017
7.80643e-017
-1.20739e-016
-1.20663e-016
-1.65258e-016
-1.23632e-016
-1.5558e-016
-1.44624e-016
-9.0471e-017
-7.57081e-017
-7.12975e-017
-1.09382e-016
-1.31664e-016
-9.19749e-017
-1.02313e-016
-1.18506e-017
-1.5379e-016
-8.61378e-017
-1.14237e-016
-7.67396e-017
-6.95627e-017
5.2766e-017
-9.37544e-017
-1.01904e-016
-1.14541e-016
-1.07199e-016
-1.39429e-016
-1.06597e-016
4.23038e-017
8.76336e-017
7.75422e-017
1.18621e-016
1.47099e-016
8.48964e-017
1.1561e-016
2.5595e-017
1.84698e-016
1.25018e-016
1.57937e-016
1.02824e-016
7.02696e-017
-2.83067e-017
8.87958e-017
9.39362e-017
1.36533e-016
1.09656e-016
1.30549e-016
1.03609e-016
-7.07885e-017
-1.06755e-016
-1.05889e-016
-1.05356e-016
-1.42719e-016
-4.74276e-017
-1.19305e-016
-2.0058e-017
-1.38937e-016
-1.01192e-016
-1.24046e-016
-9.39995e-017
-8.49313e-017
5.08252e-017
-8.54916e-017
-1.25249e-016
-1.18765e-016
-1.05246e-016
-1.47251e-016
-1.23052e-016
-9.79833e-017
-1.17758e-016
-1.15035e-016
-1.22669e-016
-1.16548e-016
-8.51062e-017
-1.29452e-016
-2.58432e-017
-1.29443e-016
-9.23406e-017
-9.97905e-017
-7.28674e-017
-5.17434e-017
7.44713e-017
-1.01017e-016
-9.70959e-017
-1.12528e-016
-1.13159e-016
-1.20054e-016
-1.056e-016
-7.45346e-017
-1.01535e-016
-5.61928e-017
-1.19975e-016
-1.58147e-016
-6.99455e-017
-1.12968e-016
-4.58975e-018
-1.70972e-016
-1.17614e-016
-1.0807e-016
-7.0697e-017
-5.78963e-017
4.97217e-017
-7.17906e-017
-1.05574e-016
-1.30234e-016
-1.0147e-016
-1.31776e-016
-9.81195e-017
7.39738e-017
1.03257e-016
7.1997e-017
1.20989e-016
1.37185e-016
5.91787e-017
1.06086e-016
2.60515e-017
1.41458e-016
1.08579e-016
1.16174e-016
9.54166e-017
5.00653e-017
-2.91932e-017
7.85201e-017
1.06802e-016
1.11538e-016
9.83549e-017
1.33272e-016
1.3767e-016
-6.37536e-017
-1.00666e-016
-9.7415e-017
-1.24921e-016
-1.33624e-016
-8.04281e-017
-1.0879e-016
-3.0341e-017
-1.24068e-016
-1.15628e-016
-1.58146e-016
-8.92902e-017
-2.95764e-017
3.93425e-017
-1.18886e-016
-1.31731e-016
-1.24267e-016
-1.14792e-016
-1.03176e-016
-1.01973e-016
8.41479e-017
1.27342e-016
9.54485e-017
1.0795e-016
1.18514e-016
5.86093e-017
1.24505e-016
3.58088e-017
1.27496e-016
9.43074e-017
1.03995e-016
6.63079e-017
4.80604e-017
-4.27182e-017
1.26849e-016
1.07605e-016
1.30969e-016
8.67752e-017
1.36488e-016
1.2296e-016
-7.53662e-017
-1.2348e-016
-1.35065e-016
-1.24418e-016
-1.46951e-016
-9.63065e-017
-1.27658e-016
-2.48308e-017
-1.40935e-016
-1.17845e-016
-1.21522e-016
-7.12473e-017
-6.42445e-017
7.49912e-017
-1.05469e-016
-1.33198e-016
-1.41718e-016
-1.12985e-016
-1.43264e-016
-1.46011e-016
6.647e-017
1.43688e-016
6.51074e-017
9.9582e-017
1.3312e-016
5.73005e-017
1.04826e-016
3.44724e-017
1.8027e-016
1.03046e-016
1.00326e-016
7.34537e-017
7.25203e-017
-2.94184e-017
8.17972e-017
9.64227e-017
1.40097e-016
7.11957e-017
1.07843e-016
8.29336e-017
8.64598e-017
1.23855e-016
8.23857e-017
1.21889e-016
1.29727e-016
7.78792e-017
1.40201e-016
-4.73974e-018
1.35296e-016
8.3344e-017
1.40567e-016
9.63604e-017
5.1728e-017
-4.72389e-017
1.2587e-016
8.46775e-017
1.1657e-016
7.95723e-017
1.12535e-016
1.10921e-016
1.06217e-016
1.11926e-016
8.86706e-017
1.4252e-016
1.38802e-016
5.714e-017
1.13096e-016
4.30055e-017
1.38826e-016
7.56122e-017
9.20308e-017
6.4501e-017
5.18955e-017
-7.87855e-017
9.92675e-017
1.51994e-016
1.1908e-016
1.14781e-016
1.45249e-016
1.31729e-016
5.71301e-017
1.13102e-016
1.06958e-016
1.41536e-016
1.56547e-016
5.79541e-017
1.2573e-016
-1.09113e-018
1.65811e-016
9.19592e-017
1.41413e-016
7.21004e-017
7.23333e-017
-6.59404e-017
1.15389e-016
1.15689e-016
9.59242e-017
1.12417e-016
1.68541e-016
1.09286e-016
7.43268e-017
9.48846e-017
1.02108e-016
1.1894e-016
1.37796e-016
7.0155e-017
1.09533e-016
-5.95996e-018
1.29036e-016
1.08763e-016
1.31269e-016
8.98669e-017
8.14133e-017
-6.35465e-017
1.21585e-016
1.14999e-016
1.26884e-016
6.37837e-017
1.27177e-016
1.22396e-016
-8.77853e-017
-1.00875e-016
-1.15155e-016
-1.28196e-016
-1.61566e-016
-6.9911e-017
-1.41894e-016
-1.6519e-017
-1.24657e-016
-9.42788e-017
-1.27429e-016
-9.32345e-017
-6.62519e-017
4.47569e-017
-8.70487e-017
-1.46867e-016
-1.40012e-016
-1.32243e-016
-1.52563e-016
-1.07433e-016
-8.36419e-017
-1.05097e-016
-9.68648e-017
-1.32682e-016
-1.3283e-016
-6.18834e-017
-1.45206e-016
-4.30985e-017
-1.44558e-016
-1.20779e-016
-1.43356e-016
-8.46102e-017
-6.71512e-017
7.94703e-017
-1.05845e-016
-1.51188e-016
-1.25581e-016
-8.56373e-017
-1.30142e-016
-1.13714e-016
7.9537e-017
9.94402e-017
9.76404e-017
1.16115e-016
1.67851e-016
6.29309e-017
1.35755e-016
2.38526e-017
1.78946e-016
9.64019e-017
1.14904e-016
7.61338e-017
8.45788e-017
-8.22273e-017
7.75206e-017
1.30354e-016
1.63475e-016
1.1919e-016
1.63255e-016
1.02937e-016
-5.64114e-017
-1.20559e-016
-7.75777e-017
-1.1712e-016
-1.66912e-016
-6.70025e-017
-1.1237e-016
-1.63299e-017
-1.53109e-016
-1.16099e-016
-1.05938e-016
-5.86836e-017
-7.7624e-017
3.86829e-017
-7.30116e-017
-1.06582e-016
-1.12875e-016
-1.11165e-016
-1.37561e-016
-1.10018e-016
-6.4936e-017
-1.00254e-016
-1.25089e-016
-1.30301e-016
-1.5538e-016
-6.61306e-017
-1.21145e-016
-2.05688e-017
-1.24224e-016
-1.00386e-016
-1.08334e-016
-8.73265e-017
-5.00241e-017
4.08331e-017
-1.21108e-016
-1.1488e-016
-1.08352e-016
-9.90011e-017
-1.23103e-016
-1.32773e-016
9.0241e-017
8.92448e-017
9.54612e-017
1.0952e-016
1.52435e-016
6.41135e-017
1.23539e-016
2.62973e-018
1.45045e-016
8.73518e-017
1.37053e-016
5.60944e-017
6.22557e-017
-5.27552e-017
1.33937e-016
8.12366e-017
9.9653e-017
8.23589e-017
1.28978e-016
1.09928e-016
8.36823e-017
1.32938e-016
1.00086e-016
1.09873e-016
1.38727e-016
7.16621e-017
1.42672e-016
4.25861e-017
1.32956e-016
1.00903e-016
1.36993e-016
6.4239e-017
7.51084e-017
-5.17645e-017
1.07799e-016
1.08429e-016
1.21049e-016
9.91912e-017
1.04949e-016
1.1043e-016
-6.05073e-017
-9.27436e-017
-1.2922e-016
-1.03051e-016
-1.11066e-016
-6.66083e-017
-1.15621e-016
-1.26428e-017
-1.32191e-016
-1.13984e-016
-1.73351e-016
-9.70416e-017
-5.87609e-017
5.80068e-017
-1.10677e-016
-1.11395e-016
-1.0206e-016
-9.61387e-017
-1.40729e-016
-1.00769e-016
-8.39541e-017
-1.3227e-016
-9.53485e-017
-1.12095e-016
-1.27901e-016
-5.89524e-017
-9.75122e-017
-2.07344e-018
-1.21815e-016
-1.12088e-016
-1.46315e-016
-1.13224e-016
-7.72238e-017
3.95855e-017
-1.10396e-016
-1.02149e-016
-1.09892e-016
-1.12162e-016
-1.30941e-016
-1.21428e-016
-7.14763e-017
-1.20002e-016
-5.32677e-017
-1.05988e-016
-1.51742e-016
-6.41597e-017
-1.31742e-016
-2.56018e-017
-1.61737e-016
-8.81424e-017
-1.19006e-016
-9.46619e-017
-4.68879e-017
5.22605e-017
-6.80747e-017
-1.1456e-016
-1.08913e-016
-6.91837e-017
-1.37351e-016
-9.29384e-017
-6.46923e-017
-1.17436e-016
-5.02176e-017
-1.27765e-016
-1.47418e-016
-5.45761e-017
-9.54494e-017
-2.18099e-017
-1.67941e-016
-1.03026e-016
-1.12727e-016
-8.37053e-017
-6.8331e-017
3.75725e-017
-5.40243e-017
-1.07301e-016
-1.23287e-016
-1.31182e-016
-1.31421e-016
-1.12424e-016
-8.32906e-017
-1.29845e-016
-9.9505e-017
-1.02227e-016
-1.38447e-016
-5.93989e-017
-1.1713e-016
-7.11847e-019
-1.48888e-016
-9.47317e-017
-1.21638e-016
-8.98702e-017
-6.69679e-017
5.12272e-017
-9.79313e-017
-1.05096e-016
-1.29162e-016
-1.04928e-016
-1.2812e-016
-1.09505e-016
-1.01005e-016
-1.01493e-016
-9.4724e-017
-1.3172e-016
-1.51723e-016
-5.25083e-017
-1.30579e-016
-9.43841e-018
-1.41998e-016
-1.21285e-016
-1.25141e-016
-4.34609e-017
-4.92206e-017
6.63383e-017
-8.35066e-017
-1.14813e-016
-1.15139e-016
-1.13251e-016
-1.73216e-016
-1.29179e-016
1.00422e-016
1.13964e-016
8.36084e-017
1.00253e-016
1.3723e-016
9.42585e-017
1.21428e-016
8.7276e-018
1.28672e-016
1.06995e-016
1.26303e-016
4.89853e-017
7.96167e-017
-4.81331e-017
6.65427e-017
8.93909e-017
1.03793e-016
8.90232e-017
1.34237e-016
9.71682e-017
8.4085e-017
1.04042e-016
7.86707e-017
1.31742e-016
1.49498e-016
5.50849e-017
1.16645e-016
4.84345e-017
1.59245e-016
9.39646e-017
1.14727e-016
6.45543e-017
6.59884e-017
-3.54224e-017
7.51672e-017
1.17119e-016
1.12149e-016
9.17161e-017
1.045e-016
9.77818e-017
-6.62538e-017
-8.92213e-017
-9.54112e-017
-1.04686e-016
-1.24922e-016
-8.26425e-017
-1.20628e-016
-3.35666e-017
-1.35611e-016
-1.04061e-016
-1.23286e-016
-8.11296e-017
-4.09754e-017
5.00601e-017
-1.05516e-016
-9.93114e-017
-1.33548e-016
-1.24772e-016
-8.8674e-017
-1.0263e-016
-5.19647e-017
-1.02049e-016
-1.15554e-016
-1.34168e-016
-1.34104e-016
-7.82042e-017
-1.15648e-016
-1.97653e-018
-1.44162e-016
-1.32189e-016
-1.36967e-016
-9.43864e-017
-9.06596e-017
7.4769e-017
-9.17522e-017
-1.08692e-016
-1.52212e-016
-1.26283e-016
-1.79519e-016
-1.17023e-016
7.41383e-017
1.16981e-016
5.50903e-017
9.97687e-017
1.20912e-016
3.13127e-017
9.75909e-017
1.88284e-017
1.22247e-016
6.73468e-017
1.38976e-016
1.12765e-016
7.50032e-017
-3.01374e-017
1.06016e-016
8.9431e-017
1.09053e-016
1.04265e-016
1.3416e-016
1.00012e-016
8.93802e-017
1.10795e-016
1.2683e-016
1.02265e-016
1.59847e-016
6.45871e-017
1.49672e-016
2.13708e-017
1.47993e-016
1.13997e-016
1.53119e-016
9.18507e-017
6.72968e-017
-7.64205e-017
9.56094e-017
1.2809e-016
1.3996e-016
1.3041e-016
1.75579e-016
1.43544e-016
-9.09955e-017
-1.19767e-016
-8.67752e-017
-9.31512e-017
-1.23382e-016
-8.25508e-017
-1.08346e-016
-3.69851e-017
-1.40908e-016
-9.02173e-017
-9.71994e-017
-7.60279e-017
-6.77933e-017
4.26458e-017
-9.6105e-017
-1.09991e-016
-1.05274e-016
-1.08348e-016
-1.19733e-016
-1.19956e-016
-9.71666e-017
-1.16978e-016
-7.74739e-017
-1.28583e-016
-1.4236e-016
-8.64539e-017
-1.33196e-016
-6.11464e-019
-1.31558e-016
-1.02374e-016
-1.28001e-016
-4.11738e-017
-5.76545e-017
3.86382e-017
-6.09608e-017
-8.40066e-017
-9.88496e-017
-9.86564e-017
-1.49383e-016
-9.03459e-017
7.17161e-017
1.33448e-016
1.33003e-016
1.43699e-016
1.55692e-016
7.21801e-017
1.28223e-016
8.6781e-018
1.45003e-016
1.08945e-016
1.21773e-016
6.76964e-017
6.73713e-017
-5.88581e-017
1.12955e-016
1.22151e-016
1.40042e-016
8.84307e-017
1.53056e-016
1.26847e-016
5.66817e-017
7.65431e-017
1.25894e-016
1.15245e-016
1.25026e-016
8.02573e-017
1.10796e-016
1.95136e-018
1.3069e-016
1.19701e-016
1.26417e-016
8.70905e-017
3.83467e-017
-5.96925e-017
1.08352e-016
1.13379e-016
1.16125e-016
1.1051e-016
1.33687e-016
1.29106e-016
-9.39293e-017
-1.02771e-016
-7.99669e-017
-1.01718e-016
-1.08143e-016
-5.60267e-017
-1.36181e-016
-3.11952e-017
-1.2986e-016
-9.83821e-017
-1.49879e-016
-7.28246e-017
-5.40854e-017
6.45649e-017
-1.03877e-016
-9.79996e-017
-1.25878e-016
-9.14989e-017
-1.3789e-016
-1.21779e-016
-5.79363e-017
-1.03168e-016
-1.32635e-016
-1.31842e-016
-1.36166e-016
-9.34255e-017
-1.32224e-016
-1.69895e-018
-1.6262e-016
-1.01996e-016
-1.20423e-016
-9.66183e-017
-9.48621e-017
8.91941e-017
-1.21435e-016
-1.39275e-016
-1.26674e-016
-1.18898e-016
-1.49598e-016
-1.40138e-016
-9.29803e-017
-1.16645e-016
-9.23336e-017
-1.06718e-016
-1.18406e-016
-6.32609e-017
-1.01226e-016
-1.91762e-017
-1.55561e-016
-8.18678e-017
-1.35261e-016
-1.08501e-016
-5.38319e-017
4.41699e-017
-6.97658e-017
-1.01287e-016
-8.34831e-017
-8.10657e-017
-1.39591e-016
-8.45855e-017
6.24831e-017
1.00856e-016
8.98371e-017
1.39496e-016
1.42585e-016
4.54425e-017
1.18019e-016
1.40042e-017
1.48369e-016
1.27841e-016
1.16338e-016
1.16568e-016
4.59508e-017
-5.1787e-017
6.81854e-017
1.18659e-016
1.21695e-016
1.16826e-016
1.53748e-016
1.37111e-016
8.83703e-017
1.0577e-016
1.11495e-016
1.39555e-016
1.46699e-016
7.43963e-017
1.38564e-016
5.31658e-017
1.41639e-016
1.10933e-016
1.06552e-016
4.71322e-017
7.23202e-017
-6.956e-017
1.14925e-016
1.45457e-016
1.37347e-016
1.07722e-016
1.44005e-016
1.58331e-016
5.67119e-017
1.49809e-016
1.11449e-016
1.18029e-016
1.27676e-016
8.04398e-017
1.34067e-016
-4.58118e-018
1.46238e-016
9.4558e-017
1.47012e-016
1.031e-016
9.15563e-017
-5.94514e-017
1.11672e-016
9.9238e-017
1.16346e-016
9.16435e-017
1.30701e-016
1.19781e-016
-8.61411e-017
-7.40549e-017
-1.07537e-016
-1.51108e-016
-1.47631e-016
-9.23738e-017
-1.41429e-016
-4.85331e-017
-1.35857e-016
-1.27109e-016
-1.24128e-016
-9.83908e-017
-8.52662e-017
5.22615e-017
-9.52663e-017
-1.5413e-016
-1.58186e-016
-1.22441e-016
-1.85673e-016
-1.66655e-016
-6.37526e-017
-9.04205e-017
-9.62032e-017
-1.21209e-016
-1.24407e-016
-6.4881e-017
-1.06753e-016
-4.20976e-017
-1.38604e-016
-1.3813e-016
-1.27351e-016
-9.04551e-017
-8.68687e-017
8.31235e-017
-1.00794e-016
-1.52212e-016
-1.37265e-016
-1.19098e-016
-1.45035e-016
-1.22493e-016
8.21788e-017
1.03048e-016
1.08143e-016
1.10721e-016
1.21625e-016
6.42094e-017
1.29581e-016
8.88333e-018
1.30688e-016
8.94939e-017
1.20605e-016
8.14939e-017
7.8813e-017
-4.36109e-017
1.00954e-016
8.71141e-017
1.20849e-016
5.87439e-017
1.24057e-016
1.10681e-016
-8.6888e-017
-1.46138e-016
-1.2466e-016
-1.31208e-016
-1.38676e-016
-8.7521e-017
-1.00098e-016
-2.3578e-017
-1.5025e-016
-6.87944e-017
-1.39421e-016
-8.81093e-017
-8.2329e-017
3.96011e-017
-1.23088e-016
-9.53984e-017
-1.28836e-016
-1.00384e-016
-1.68398e-016
-1.05701e-016
9.73154e-017
1.01126e-016
1.34402e-016
1.26388e-016
1.49816e-016
9.91339e-017
1.7154e-016
3.55341e-017
1.55126e-016
1.2392e-016
1.38681e-016
7.98192e-017
7.28205e-017
-7.09422e-017
1.04132e-016
1.44279e-016
1.57442e-016
1.43965e-016
1.76569e-016
1.46145e-016
8.07617e-017
9.78759e-017
1.14454e-016
1.08451e-016
1.37505e-016
5.36931e-017
1.21565e-016
3.03649e-017
1.47193e-016
1.32283e-016
1.14311e-016
6.4861e-017
8.95095e-017
-7.75836e-017
1.06642e-016
1.2768e-016
1.27445e-016
1.01236e-016
1.49962e-016
1.19293e-016
-6.3983e-017
-1.24756e-016
-8.89345e-017
-1.07536e-016
-1.12471e-016
-7.96881e-017
-1.14501e-016
-3.28081e-017
-1.29879e-016
-8.67465e-017
-1.43006e-016
-8.62093e-017
-7.04902e-017
3.58848e-017
-8.85078e-017
-1.02755e-016
-1.08625e-016
-1.07746e-016
-1.01409e-016
-1.04304e-016
-6.28028e-017
-9.81031e-017
-1.14604e-016
-1.23883e-016
-1.50031e-016
-9.67802e-017
-1.41474e-016
-3.90633e-017
-1.2911e-016
-1.258e-016
-1.08936e-016
-8.68726e-017
-5.91006e-017
7.90016e-017
-1.18618e-016
-1.22335e-016
-1.2019e-016
-1.07332e-016
-1.49364e-016
-1.33039e-016
-6.60044e-017
-1.08902e-016
-9.84454e-017
-1.15348e-016
-1.42838e-016
-7.16005e-017
-1.16419e-016
-3.03633e-017
-1.6974e-016
-8.36737e-017
-1.50132e-016
-5.70161e-017
-8.53157e-017
5.01662e-017
-5.91402e-017
-8.53424e-017
-1.04955e-016
-8.85966e-017
-1.47664e-016
-1.06054e-016
7.64394e-017
1.22795e-016
8.56966e-017
1.15688e-016
1.5997e-016
6.18725e-017
8.4361e-017
3.47302e-017
1.44844e-016
8.34123e-017
1.53456e-016
9.08618e-017
6.15966e-017
-3.89266e-017
9.10036e-017
1.13804e-016
1.08996e-016
8.44966e-017
1.39137e-016
1.3266e-016
-6.62007e-017
-1.12363e-016
-1.29347e-016
-1.33765e-016
-1.25679e-016
-4.68021e-017
-1.28276e-016
-5.37316e-017
-1.46946e-016
-9.98036e-017
-1.34371e-016
-4.0764e-017
-5.99076e-017
7.2618e-017
-1.04266e-016
-1.18797e-016
-1.23396e-016
-1.17075e-016
-1.51221e-016
-1.26255e-016
9.01093e-017
1.09715e-016
1.14546e-016
1.07768e-016
1.39695e-016
7.70606e-017
1.214e-016
8.83484e-018
1.43715e-016
1.20865e-016
1.11234e-016
6.86041e-017
6.17948e-017
-5.43244e-017
1.12361e-016
9.05327e-017
9.71063e-017
1.03095e-016
1.17302e-016
1.23942e-016
-6.06834e-017
-1.25981e-016
-1.21296e-016
-1.15535e-016
-1.62478e-016
-4.27964e-017
-1.12921e-016
-3.63627e-017
-1.46294e-016
-1.37327e-016
-1.21971e-016
-8.0964e-017
-7.77275e-017
6.2638e-017
-1.13416e-016
-1.25836e-016
-1.38829e-016
-1.06966e-016
-1.37828e-016
-1.37399e-016
7.71225e-017
1.12491e-016
4.74633e-017
1.03265e-016
1.44111e-016
4.55745e-017
1.19472e-016
3.98813e-017
1.29863e-016
9.4151e-017
1.12838e-016
6.50518e-017
7.50061e-017
-4.16543e-017
6.60582e-017
1.20396e-016
9.65749e-017
9.48132e-017
1.49906e-016
1.21425e-016
8.24945e-017
1.08546e-016
1.10678e-016
8.63225e-017
1.18386e-016
8.87625e-017
1.16963e-016
1.53092e-017
1.26259e-016
8.19054e-017
1.24408e-016
8.41359e-017
7.95666e-017
-4.09867e-017
1.0075e-016
1.50996e-016
1.11718e-016
1.08681e-016
1.39318e-016
8.07477e-017
-7.91009e-017
-1.43662e-016
-1.15046e-016
-1.34416e-016
-1.47072e-016
-7.41466e-017
-1.09348e-016
-3.98409e-017
-1.14055e-016
-1.10184e-016
-1.33049e-016
-5.87868e-017
-7.07018e-017
5.4291e-017
-1.42468e-016
-1.11503e-016
-1.21985e-016
-8.2833e-017
-1.36913e-016
-1.45579e-016
5.27499e-017
9.92459e-017
1.20256e-016
1.16716e-016
1.37438e-016
6.22425e-017
1.03103e-016
5.49836e-017
1.30408e-016
1.10872e-016
1.04452e-016
8.92037e-017
7.60507e-017
-5.1927e-017
9.7731e-017
1.21729e-016
1.32092e-016
8.78922e-017
1.22603e-016
1.21911e-016
1.06308e-016
1.37317e-016
1.23314e-016
1.12447e-016
1.64277e-016
6.72699e-017
1.29488e-016
4.67044e-017
1.15756e-016
8.93097e-017
1.13443e-016
8.4116e-017
6.37016e-017
-5.75927e-017
1.11068e-016
1.31745e-016
1.37812e-016
1.10116e-016
1.49577e-016
1.29286e-016
9.23464e-017
1.29225e-016
8.57789e-017
1.00947e-016
1.39288e-016
3.83136e-017
1.45003e-016
4.09285e-017
1.47151e-016
9.62167e-017
1.27303e-016
3.12141e-017
5.24152e-017
-5.03851e-017
9.34498e-017
9.18099e-017
1.21011e-016
9.92644e-017
1.23602e-016
9.36229e-017
4.59578e-017
1.16836e-016
1.2101e-016
1.49504e-016
1.64049e-016
6.91916e-017
1.37777e-016
2.89483e-017
1.55538e-016
1.18874e-016
1.18943e-016
7.61048e-017
8.53664e-017
-8.11567e-017
1.03941e-016
1.23408e-016
1.14819e-016
1.10782e-016
1.60396e-016
1.26145e-016
5.86498e-017
1.11933e-016
7.83139e-017
1.17705e-016
1.38582e-016
4.1505e-017
1.15909e-016
1.42901e-018
1.57819e-016
8.40235e-017
1.25117e-016
1.10998e-016
4.7639e-017
-1.96778e-017
6.52754e-017
1.09624e-016
8.33836e-017
9.50113e-017
1.10432e-016
1.08801e-016
8.57819e-017
1.28419e-016
1.2459e-016
1.31738e-016
1.34583e-016
8.45992e-017
1.38205e-016
7.47049e-018
1.20814e-016
7.93648e-017
1.1459e-016
5.73223e-017
7.23743e-017
-4.81984e-017
1.31003e-016
1.08398e-016
1.14813e-016
9.92711e-017
1.58836e-016
1.18769e-016
-7.64404e-017
-9.60201e-017
-1.05913e-016
-1.20919e-016
-1.11893e-016
-1.11919e-016
-1.09088e-016
-4.49392e-017
-1.52511e-016
-1.1485e-016
-1.32811e-016
-1.07432e-016
-7.46711e-017
6.53617e-017
-1.01317e-016
-1.28049e-016
-1.4614e-016
-9.67045e-017
-1.66125e-016
-1.37565e-016
-8.84557e-017
-1.03557e-016
-1.42966e-016
-1.24996e-016
-1.3138e-016
-8.40988e-017
-1.21766e-016
-2.11598e-018
-1.32511e-016
-1.03323e-016
-1.11631e-016
-1.1973e-016
-7.87097e-017
6.88204e-017
-1.01946e-016
-1.36883e-016
-1.19585e-016
-1.1439e-016
-1.58758e-016
-1.1039e-016
8.73395e-017
1.05563e-016
1.01991e-016
1.34984e-016
1.67955e-016
7.06477e-017
1.35033e-016
3.84079e-017
1.5153e-016
9.56797e-017
1.04072e-016
5.85931e-017
8.35515e-017
-7.46417e-017
1.39867e-016
1.25168e-016
1.50974e-016
1.06479e-016
1.65225e-016
1.51408e-016
-6.61862e-017
-1.31734e-016
-6.47698e-017
-1.32455e-016
-1.3516e-016
-3.42833e-017
-9.8463e-017
-6.61109e-018
-1.29289e-016
-1.40398e-016
-1.00023e-016
-1.02121e-016
-8.17505e-017
4.59754e-017
-7.74065e-017
-9.69487e-017
-9.72681e-017
-1.09684e-016
-1.39637e-016
-1.05774e-016
8.91608e-017
1.18063e-016
8.29532e-017
1.00071e-016
1.20955e-016
6.36125e-017
1.57343e-016
2.79511e-017
1.36554e-016
9.83294e-017
8.8264e-017
1.16139e-016
6.86867e-017
-5.80901e-017
9.89088e-017
8.94437e-017
1.28997e-016
8.24618e-017
1.27479e-016
1.17532e-016
5.73986e-017
8.71281e-017
7.21021e-017
1.0849e-016
1.50133e-016
6.99707e-017
1.01092e-016
3.41525e-017
1.68403e-016
8.62518e-017
1.02944e-016
1.08483e-016
8.45527e-017
-3.44207e-017
9.0739e-017
9.46961e-017
9.43413e-017
6.92467e-017
1.33287e-016
1.3357e-016
-1.07549e-016
-9.33983e-017
-1.06308e-016
-1.4399e-016
-1.73054e-016
-5.65169e-017
-1.4302e-016
-2.83756e-017
-1.35021e-016
-1.07123e-016
-1.29242e-016
-7.87934e-017
-7.54384e-017
7.06393e-017
-8.90357e-017
-1.45299e-016
-1.22614e-016
-1.32791e-016
-1.47571e-016
-1.29133e-016
-7.40702e-017
-1.04405e-016
-7.42933e-017
-1.33448e-016
-1.30939e-016
-7.03596e-017
-1.19859e-016
-3.82549e-017
-1.6344e-016
-1.00602e-016
-1.35136e-016
-7.00727e-017
-7.30217e-017
5.45297e-017
-7.30612e-017
-9.96017e-017
-1.07905e-016
-1.19877e-016
-1.23689e-016
-1.20934e-016
8.57069e-017
1.20945e-016
1.27025e-016
1.19668e-016
1.90101e-016
7.24416e-017
1.5481e-016
5.38188e-018
1.4417e-016
9.33978e-017
1.35051e-016
6.5541e-017
7.68761e-017
-4.67469e-017
1.02873e-016
1.18169e-016
1.14162e-016
1.10258e-016
1.29036e-016
1.54481e-016
7.53336e-017
7.80902e-017
8.79601e-017
1.27592e-016
1.61734e-016
7.50677e-017
1.26922e-016
4.24168e-017
1.18629e-016
9.8706e-017
1.37785e-016
9.05178e-017
8.27376e-017
-4.79961e-017
1.196e-016
1.2721e-016
1.30905e-016
1.02055e-016
1.47213e-016
1.47729e-016
-9.3368e-017
-1.07172e-016
-1.26947e-016
-1.5271e-016
-1.42555e-016
-9.30978e-017
-1.31278e-016
-2.69124e-017
-1.17265e-016
-9.91514e-017
-1.44316e-016
-8.32259e-017
-8.40982e-017
8.39658e-017
-1.33448e-016
-1.29356e-016
-1.56324e-016
-1.06269e-016
-1.57619e-016
-1.51495e-016
-1.02056e-016
-1.11005e-016
-1.08508e-016
-1.2631e-016
-1.23777e-016
-1.24575e-016
-7.97903e-017
-3.13141e-018
-1.6223e-016
-1.01677e-016
-1.10543e-016
-5.19653e-017
-8.29226e-017
4.47271e-017
-1.13616e-016
-1.28102e-016
-1.44733e-016
-9.04043e-017
-1.53774e-016
-1.0836e-016
-8.87122e-017
-1.25763e-016
-1.18159e-016
-1.37083e-016
-1.62876e-016
-5.93426e-017
-1.57442e-016
-1.80798e-017
-1.50052e-016
-9.20616e-017
-1.32083e-016
-7.99525e-017
-6.74734e-017
6.42971e-017
-1.12599e-016
-1.38333e-016
-1.60427e-016
-1.17205e-016
-1.62177e-016
-1.45284e-016
-1.07674e-016
-1.18681e-016
-5.64958e-017
-1.04706e-016
-1.15831e-016
-7.10083e-017
-1.05223e-016
-3.5207e-018
-1.32549e-016
-8.63055e-017
-1.08574e-016
-6.39755e-017
-9.72482e-017
3.49367e-017
-9.67591e-017
-9.03883e-017
-7.90274e-017
-5.82363e-017
-9.86295e-017
-1.2014e-016
-7.20003e-017
-1.01161e-016
-1.17112e-016
-1.20946e-016
-1.61083e-016
-4.60754e-017
-1.34116e-016
-5.11684e-017
-1.31287e-016
-1.17807e-016
-1.15012e-016
-8.49958e-017
-9.57598e-017
6.22395e-017
-1.04866e-016
-1.29511e-016
-1.27535e-016
-1.01661e-016
-1.66148e-016
-1.39805e-016
-8.7008e-017
-1.25347e-016
-8.75614e-017
-1.20122e-016
-1.26138e-016
-7.13045e-017
-1.30947e-016
-2.33177e-017
-1.53661e-016
-1.01304e-016
-1.33739e-016
-9.24031e-017
-6.26182e-017
3.92076e-017
-8.38494e-017
-1.35478e-016
-1.1255e-016
-1.13639e-016
-1.50305e-016
-7.82842e-017
-7.15169e-017
-8.93791e-017
-9.39209e-017
-1.42649e-016
-1.17722e-016
-5.05049e-017
-1.09789e-016
-1.94214e-017
-1.50013e-016
-1.13599e-016
-1.17382e-016
-9.34178e-017
-3.62124e-017
4.41235e-017
-8.0007e-017
-8.60508e-017
-1.03976e-016
-8.6568e-017
-1.39325e-016
-1.00456e-016
5.91061e-017
9.88485e-017
1.11973e-016
1.3961e-016
1.55789e-016
9.88337e-017
1.30519e-016
1.45197e-017
1.25026e-016
1.12181e-016
1.35851e-016
8.17736e-017
7.96654e-017
-6.12688e-017
1.06171e-016
1.50484e-016
1.42592e-016
1.15261e-016
1.65928e-016
1.33417e-016
-8.33361e-017
-1.20311e-016
-1.14183e-016
-1.37274e-016
-1.77764e-016
-6.626e-017
-1.42561e-016
2.31058e-018
-1.2984e-016
-1.07301e-016
-1.25145e-016
-8.67082e-017
-7.05589e-017
5.65153e-017
-1.15101e-016
-1.52624e-016
-1.31884e-016
-9.61292e-017
-1.67797e-016
-1.0384e-016
-9.81657e-017
-1.20261e-016
-7.95906e-017
-1.29029e-016
-1.28441e-016
-7.06425e-017
-1.18186e-016
-3.4747e-017
-1.45881e-016
-8.70415e-017
-1.25764e-016
-7.16577e-017
-7.12715e-017
4.13843e-017
-7.255e-017
-9.41636e-017
-9.06322e-017
-8.09678e-017
-1.3328e-016
-1.00193e-016
-1.03664e-016
-8.03273e-017
-1.10359e-016
-1.54277e-016
-1.49326e-016
-1.12325e-016
-1.47371e-016
-2.52401e-017
-1.5588e-016
-9.98613e-017
-1.09794e-016
-7.22429e-017
-5.83472e-017
6.87347e-017
-9.55173e-017
-1.2738e-016
-1.40182e-016
-8.53084e-017
-1.71278e-016
-1.32833e-016
9.01644e-017
1.18024e-016
1.21681e-016
1.15396e-016
1.2703e-016
5.67266e-017
1.38424e-016
6.69552e-018
1.3497e-016
1.10706e-016
1.16916e-016
4.93685e-017
8.03573e-017
-5.08596e-017
1.17233e-016
1.16732e-016
1.15105e-016
1.20487e-016
1.19497e-016
1.12515e-016
-1.10956e-016
-1.12049e-016
-8.73964e-017
-1.10952e-016
-1.53836e-016
-1.16745e-016
-1.17816e-016
-5.02894e-017
-1.53166e-016
-7.52081e-017
-1.09778e-016
-5.63051e-017
-7.63073e-017
4.62238e-017
-9.89431e-017
-8.8188e-017
-9.53864e-017
-1.08798e-016
-1.30466e-016
-1.19686e-016
8.43406e-017
1.37997e-016
8.76039e-017
1.1634e-016
1.39316e-016
5.77229e-017
1.4237e-016
1.83357e-017
1.2725e-016
1.06499e-016
1.33091e-016
6.59249e-017
5.00798e-017
-3.53448e-017
1.13025e-016
1.09857e-016
1.01042e-016
9.20368e-017
1.38197e-016
1.14948e-016
7.92305e-017
1.06943e-016
1.28036e-016
9.4319e-017
1.31487e-016
5.39026e-017
1.18847e-016
4.8805e-017
1.33642e-016
1.07444e-016
1.3023e-016
8.86413e-017
6.73158e-017
-5.03375e-017
1.09539e-016
1.29457e-016
1.25528e-016
1.02096e-016
1.13563e-016
1.13967e-016
-1.01139e-016
-1.30511e-016
-6.68539e-017
-9.20539e-017
-1.08325e-016
-7.56151e-017
-1.23211e-016
-2.36071e-017
-1.53484e-016
-9.60603e-017
-1.02879e-016
-5.39969e-017
-6.17481e-017
2.56822e-017
-7.13637e-017
-7.90418e-017
-1.21887e-016
-1.0793e-016
-1.10638e-016
-9.90463e-017
9.32988e-017
1.26103e-016
7.97902e-017
1.08545e-016
1.4788e-016
7.6328e-017
1.25272e-016
4.22495e-017
1.34767e-016
1.24951e-016
1.16139e-016
6.31062e-017
5.87589e-017
-6.64559e-017
1.16205e-016
1.07496e-016
1.31985e-016
1.02859e-016
1.28071e-016
1.32377e-016
8.56815e-017
1.36561e-016
9.32615e-017
1.29206e-016
1.4146e-016
6.8689e-017
8.33311e-017
1.2009e-017
1.57316e-016
1.00722e-016
1.55807e-016
9.62728e-017
9.19098e-017
-5.27253e-018
7.98906e-017
6.35323e-017
9.2163e-017
1.0096e-016
1.37222e-016
9.48832e-017
-7.96258e-017
-1.04754e-016
-1.12531e-016
-1.32363e-016
-1.39177e-016
-5.32423e-017
-1.27346e-016
-1.35019e-017
-1.26627e-016
-1.06461e-016
-1.40381e-016
-6.39116e-017
-5.81559e-017
7.9534e-017
-1.11001e-016
-1.54048e-016
-1.06642e-016
-9.50574e-017
-1.5989e-016
-1.18218e-016
7.87482e-017
1.17942e-016
1.18488e-016
1.29857e-016
1.48156e-016
7.50348e-017
1.22334e-016
2.91693e-017
1.35164e-016
1.19169e-016
1.30625e-016
1.0254e-016
9.06738e-017
-6.84544e-017
1.36993e-016
1.03594e-016
1.1235e-016
8.69667e-017
1.41535e-016
1.34702e-016
8.75433e-017
9.98608e-017
9.84475e-017
1.42607e-016
1.24007e-016
5.74035e-017
1.29474e-016
3.60115e-017
1.44926e-016
1.15411e-016
1.44807e-016
8.5402e-017
4.93052e-017
-6.72571e-017
8.61626e-017
1.49051e-016
1.49554e-016
1.17299e-016
1.5339e-016
1.2821e-016
7.32127e-017
9.44719e-017
1.13711e-016
1.04483e-016
1.41807e-016
4.45206e-017
1.26978e-016
3.00228e-017
1.29086e-016
9.83904e-017
1.04249e-016
8.18932e-017
5.87396e-017
-7.63633e-017
1.22955e-016
1.45956e-016
1.17594e-016
1.07285e-016
1.58058e-016
1.19192e-016
-9.56776e-017
-1.23991e-016
-1.29743e-016
-1.31581e-016
-1.67263e-016
-9.14022e-017
-1.20792e-016
-1.51503e-017
-1.42376e-016
-1.00836e-016
-1.35508e-016
-9.15524e-017
-7.05586e-017
6.21982e-017
-9.91148e-017
-1.52969e-016
-1.54057e-016
-1.20482e-016
-1.96391e-016
-1.5024e-016
-7.63888e-017
-1.26541e-016
-1.04151e-016
-1.32551e-016
-1.47266e-016
-6.04849e-017
-1.30056e-016
-1.95746e-017
-1.50736e-016
-1.0499e-016
-1.40704e-016
-9.74107e-017
-7.21206e-017
8.76641e-017
-7.38621e-017
-1.4885e-016
-1.32973e-016
-1.24206e-016
-1.95979e-016
-1.28507e-016
-8.75796e-017
-1.1885e-016
-8.18727e-017
-1.18552e-016
-1.61295e-016
-7.85314e-017
-9.4277e-017
-2.22408e-017
-1.85841e-016
-8.7055e-017
-1.03145e-016
-1.04389e-016
-8.70148e-017
2.90439e-017
-7.38853e-017
-1.22826e-016
-1.11437e-016
-1.10258e-016
-1.48479e-016
-1.1588e-016
8.73055e-017
1.15082e-016
8.65739e-017
1.23679e-016
1.16188e-016
9.46272e-017
1.16752e-016
2.30032e-017
1.34815e-016
7.53876e-017
1.10166e-016
6.97756e-017
6.59745e-017
-5.20966e-017
9.90433e-017
1.1248e-016
1.01258e-016
7.91722e-017
1.52631e-016
7.22683e-017
-1.0029e-016
-9.72111e-017
-9.89539e-017
-1.51176e-016
-1.4904e-016
-1.12251e-016
-1.20741e-016
-7.33881e-018
-1.3853e-016
-1.03183e-016
-1.30455e-016
-9.81141e-017
-4.06129e-017
7.72252e-017
-9.92265e-017
-1.2944e-016
-1.24272e-016
-1.07596e-016
-1.55038e-016
-1.14349e-016
-7.65031e-017
-1.00612e-016
-7.95243e-017
-8.72252e-017
-1.34118e-016
-6.16608e-017
-1.01185e-016
-8.17595e-019
-1.53006e-016
-6.03265e-017
-1.24929e-016
-7.82799e-017
-6.78285e-017
5.17606e-018
-6.50002e-017
-8.88828e-017
-1.20876e-016
-7.85547e-017
-1.10599e-016
-7.43714e-017
-8.6731e-017
-8.63055e-017
-1.0928e-016
-1.40362e-016
-1.42779e-016
-1.02067e-016
-9.30378e-017
-3.87554e-017
-1.78849e-016
-8.00667e-017
-1.02096e-016
-8.68154e-017
-9.08557e-017
6.34727e-017
-1.31413e-016
-9.42e-017
-1.6334e-016
-1.05952e-016
-1.45366e-016
-1.51741e-016
-1.01292e-016
-1.24254e-016
-9.45426e-017
-1.12812e-016
-1.22645e-016
-4.02322e-017
-1.12705e-016
-5.60783e-017
-1.45291e-016
-1.02997e-016
-1.40461e-016
-8.75145e-017
-6.8312e-017
6.74854e-017
-1.23202e-016
-1.05717e-016
-1.09807e-016
-8.76098e-017
-1.44442e-016
-9.75072e-017
6.73587e-017
1.34727e-016
9.41626e-017
9.34133e-017
1.41044e-016
4.82933e-017
1.24764e-016
3.77867e-017
1.394e-016
1.32735e-016
1.50258e-016
8.46302e-017
8.24144e-017
-5.63192e-017
1.10815e-016
1.09988e-016
9.4928e-017
1.13571e-016
1.38285e-016
1.25484e-016
-8.13588e-017
-1.22404e-016
-1.16994e-016
-1.69319e-016
-1.38614e-016
-1.03453e-016
-1.48216e-016
-3.6577e-017
-1.29108e-016
-1.04673e-016
-1.46214e-016
-9.21816e-017
-7.39602e-017
6.5805e-017
-1.14235e-016
-1.6103e-016
-1.61388e-016
-9.53922e-017
-1.65381e-016
-1.61854e-016
-7.04756e-017
-7.57613e-017
-1.25659e-016
-1.4079e-016
-1.66471e-016
-9.92489e-017
-1.31937e-016
-6.6464e-018
-1.44596e-016
-1.16375e-016
-1.10313e-016
-1.16602e-016
-6.77428e-017
6.43053e-017
-8.28755e-017
-1.5715e-016
-1.39864e-016
-1.34129e-016
-1.68338e-016
-1.17478e-016
-6.03815e-017
-1.2518e-016
-7.85199e-017
-1.28266e-016
-1.25062e-016
-4.92711e-017
-1.00334e-016
-1.8674e-017
-1.34329e-016
-1.05531e-016
-1.23096e-016
-8.26422e-017
-6.91563e-017
4.53557e-017
-6.30654e-017
-1.10396e-016
-9.39925e-017
-1.20344e-016
-1.31956e-016
-9.31788e-017
9.06009e-017
1.34293e-016
7.17136e-017
1.14515e-016
1.13895e-016
7.77491e-017
8.51938e-017
1.20094e-017
1.64947e-016
9.07934e-017
1.41061e-016
1.06234e-016
5.26635e-017
-4.08925e-017
6.39588e-017
7.50366e-017
1.03021e-016
1.07144e-016
1.4107e-016
1.22697e-016
7.81085e-017
1.107e-016
1.2227e-016
1.40577e-016
1.41051e-016
4.69384e-017
1.34426e-016
5.1798e-017
1.29985e-016
1.26508e-016
1.5093e-016
9.29951e-017
5.78116e-017
-9.39576e-017
1.16208e-016
1.27546e-016
1.24506e-016
1.11358e-016
1.83171e-016
1.24365e-016
-7.02704e-017
-1.3139e-016
-1.20516e-016
-1.34239e-016
-1.48976e-016
-4.59068e-017
-1.23093e-016
-3.15282e-017
-1.50463e-016
-1.2368e-016
-1.38199e-016
-9.26289e-017
-7.79652e-017
7.63416e-017
-9.80117e-017
-1.4067e-016
-1.29232e-016
-9.16508e-017
-1.55262e-016
-1.29062e-016
-9.50646e-017
-1.01238e-016
-8.03117e-017
-1.31399e-016
-1.35407e-016
-8.57023e-017
-1.08112e-016
-1.71882e-017
-1.48064e-016
-9.9842e-017
-1.16408e-016
-6.57768e-017
-6.02007e-017
-3.77413e-018
-4.79956e-017
-1.0703e-016
-1.08054e-016
-1.39877e-016
-1.52206e-016
-8.91122e-017
8.21937e-017
1.156e-016
1.31118e-016
1.36869e-016
1.4283e-016
6.42119e-017
1.23017e-016
4.48797e-017
1.56509e-016
1.05133e-016
1.15269e-016
2.45046e-017
8.18284e-017
-8.03962e-017
1.3185e-016
1.2725e-016
1.30015e-016
9.03257e-017
1.357e-016
1.34395e-016
-8.04814e-017
-1.09329e-016
-1.50928e-016
-1.42524e-016
-1.60772e-016
-6.31936e-017
-1.16097e-016
-1.04676e-017
-1.75652e-016
-9.3137e-017
-1.28776e-016
-5.84163e-017
-6.0012e-017
9.31402e-017
-1.24088e-016
-1.26416e-016
-1.02894e-016
-1.13431e-016
-1.52169e-016
-1.20902e-016
-6.26113e-017
-1.34099e-016
-1.1339e-016
-1.19365e-016
-1.1659e-016
-6.67924e-017
-1.2173e-016
4.29526e-018
-1.31968e-016
-9.90337e-017
-1.42376e-016
-7.31092e-017
-6.11867e-017
4.65396e-017
-9.34647e-017
-9.49497e-017
-1.07768e-016
-8.2707e-017
-1.12458e-016
-1.17074e-016
8.76495e-017
1.18298e-016
1.03842e-016
1.35153e-016
1.26231e-016
6.95563e-017
1.34229e-016
3.85877e-017
1.23905e-016
1.08153e-016
1.16391e-016
1.04575e-016
4.79463e-017
-1.97441e-017
9.84207e-017
1.02086e-016
1.26801e-016
7.66543e-017
1.32986e-016
9.27759e-017
1.09055e-016
1.1995e-016
9.86286e-017
1.05774e-016
1.55976e-016
6.35458e-017
1.28176e-016
-1.42824e-018
1.53452e-016
8.34158e-017
1.09099e-016
6.73753e-017
7.94521e-017
-5.68764e-017
1.12637e-016
1.23703e-016
1.22195e-016
1.00292e-016
1.25471e-016
1.18338e-016
-7.62396e-017
-1.07488e-016
-1.23325e-016
-1.23666e-016
-1.41809e-016
-6.64407e-017
-1.41337e-016
-2.38374e-017
-1.55297e-016
-1.01936e-016
-1.36855e-016
-9.4784e-017
-7.55709e-017
6.6588e-017
-8.31394e-017
-1.39061e-016
-1.5255e-016
-1.05192e-016
-1.38828e-016
-1.27177e-016
-6.73276e-017
-1.04881e-016
-1.26239e-016
-1.31892e-016
-1.37809e-016
-1.08071e-016
-1.16172e-016
-1.12434e-017
-1.52102e-016
-7.88255e-017
-1.22651e-016
-9.23636e-017
-6.14809e-017
8.35034e-017
-1.19375e-016
-1.38312e-016
-1.37682e-016
-1.1497e-016
-1.27415e-016
-1.156e-016
7.2359e-017
1.24019e-016
1.01276e-016
1.29064e-016
1.18791e-016
8.40182e-017
1.35516e-016
3.41416e-017
1.199e-016
1.07638e-016
1.42508e-016
1.0861e-016
2.51613e-017
-5.90739e-017
1.17569e-016
1.01989e-016
1.53924e-016
1.10298e-016
1.19964e-016
1.11258e-016
-9.25827e-017
-1.09378e-016
-1.16316e-016
-1.65289e-016
-1.64654e-016
-3.93936e-017
-1.38556e-016
-1.90669e-017
-1.3993e-016
-7.83746e-017
-1.13055e-016
-9.63444e-017
-9.38627e-017
6.38473e-017
-9.44236e-017
-1.311e-016
-1.39802e-016
-1.15391e-016
-1.66538e-016
-1.16977e-016
-6.90133e-017
-1.13684e-016
-8.85709e-017
-1.15446e-016
-1.26429e-016
-7.11804e-017
-1.22188e-016
-4.3391e-017
-1.19713e-016
-9.05805e-017
-1.41461e-016
-7.64217e-017
-7.4514e-017
4.65469e-017
-1.0814e-016
-9.70672e-017
-1.14448e-016
-9.16253e-017
-1.20842e-016
-1.11802e-016
-9.08736e-017
-1.22825e-016
-9.53377e-017
-1.23243e-016
-1.44801e-016
-4.58273e-017
-1.15159e-016
-3.21033e-017
-1.29193e-016
-1.04143e-016
-1.01526e-016
-5.03174e-017
-9.65659e-017
5.29468e-017
-8.06971e-017
-1.17447e-016
-1.05224e-016
-9.11443e-017
